tree
version=v4
num_class=3
num_tree_per_iteration=3
label_index=0
max_feature_idx=8007
objective=multiclass num_class:3
feature_names=Column_0 Column_1 Column_2 Column_3 Column_4 Column_5 Column_6 Column_7 Column_8 Column_9 Column_10 Column_11 Column_12 Column_13 Column_14 Column_15 Column_16 Column_17 Column_18 Column_19 Column_20 Column_21 Column_22 Column_23 Column_24 Column_25 Column_26 Column_27 Column_28 Column_29 Column_30 Column_31 Column_32 Column_33 Column_34 Column_35 Column_36 Column_37 Column_38 Column_39 Column_40 Column_41 Column_42 Column_43 Column_44 Column_45 Column_46 Column_47 Column_48 Column_49 Column_50 Column_51 Column_52 Column_53 Column_54 Column_55 Column_56 Column_57 Column_58 Column_59 Column_60 Column_61 Column_62 Column_63 Column_64 Column_65 Column_66 Column_67 Column_68 Column_69 Column_70 Column_71 Column_72 Column_73 Column_74 Column_75 Column_76 Column_77 Column_78 Column_79 Column_80 Column_81 Column_82 Column_83 Column_84 Column_85 Column_86 Column_87 Column_88 Column_89 Column_90 Column_91 Column_92 Column_93 Column_94 Column_95 Column_96 Column_97 Column_98 Column_99 Column_100 Column_101 Column_102 Column_103 Column_104 Column_105 Column_106 Column_107 Column_108 Column_109 Column_110 Column_111 Column_112 Column_113 Column_114 Column_115 Column_116 Column_117 Column_118 Column_119 Column_120 Column_121 Column_122 Column_123 Column_124 Column_125 Column_126 Column_127 Column_128 Column_129 Column_130 Column_131 Column_132 Column_133 Column_134 Column_135 Column_136 Column_137 Column_138 Column_139 Column_140 Column_141 Column_142 Column_143 Column_144 Column_145 Column_146 Column_147 Column_148 Column_149 Column_150 Column_151 Column_152 Column_153 Column_154 Column_155 Column_156 Column_157 Column_158 Column_159 Column_160 Column_161 Column_162 Column_163 Column_164 Column_165 Column_166 Column_167 Column_168 Column_169 Column_170 Column_171 Column_172 Column_173 Column_174 Column_175 Column_176 Column_177 Column_178 Column_179 Column_180 Column_181 Column_182 Column_183 Column_184 Column_185 Column_186 Column_187 Column_188 Column_189 Column_190 Column_191 Column_192 Column_193 Column_194 Column_195 Column_196 Column_197 Column_198 Column_199 Column_200 Column_201 Column_202 Column_203 Column_204 Column_205 Column_206 Column_207 Column_208 Column_209 Column_210 Column_211 Column_212 Column_213 Column_214 Column_215 Column_216 Column_217 Column_218 Column_219 Column_220 Column_221 Column_222 Column_223 Column_224 Column_225 Column_226 Column_227 Column_228 Column_229 Column_230 Column_231 Column_232 Column_233 Column_234 Column_235 Column_236 Column_237 Column_238 Column_239 Column_240 Column_241 Column_242 Column_243 Column_244 Column_245 Column_246 Column_247 Column_248 Column_249 Column_250 Column_251 Column_252 Column_253 Column_254 Column_255 Column_256 Column_257 Column_258 Column_259 Column_260 Column_261 Column_262 Column_263 Column_264 Column_265 Column_266 Column_267 Column_268 Column_269 Column_270 Column_271 Column_272 Column_273 Column_274 Column_275 Column_276 Column_277 Column_278 Column_279 Column_280 Column_281 Column_282 Column_283 Column_284 Column_285 Column_286 Column_287 Column_288 Column_289 Column_290 Column_291 Column_292 Column_293 Column_294 Column_295 Column_296 Column_297 Column_298 Column_299 Column_300 Column_301 Column_302 Column_303 Column_304 Column_305 Column_306 Column_307 Column_308 Column_309 Column_310 Column_311 Column_312 Column_313 Column_314 Column_315 Column_316 Column_317 Column_318 Column_319 Column_320 Column_321 Column_322 Column_323 Column_324 Column_325 Column_326 Column_327 Column_328 Column_329 Column_330 Column_331 Column_332 Column_333 Column_334 Column_335 Column_336 Column_337 Column_338 Column_339 Column_340 Column_341 Column_342 Column_343 Column_344 Column_345 Column_346 Column_347 Column_348 Column_349 Column_350 Column_351 Column_352 Column_353 Column_354 Column_355 Column_356 Column_357 Column_358 Column_359 Column_360 Column_361 Column_362 Column_363 Column_364 Column_365 Column_366 Column_367 Column_368 Column_369 Column_370 Column_371 Column_372 Column_373 Column_374 Column_375 Column_376 Column_377 Column_378 Column_379 Column_380 Column_381 Column_382 Column_383 Column_384 Column_385 Column_386 Column_387 Column_388 Column_389 Column_390 Column_391 Column_392 Column_393 Column_394 Column_395 Column_396 Column_397 Column_398 Column_399 Column_400 Column_401 Column_402 Column_403 Column_404 Column_405 Column_406 Column_407 Column_408 Column_409 Column_410 Column_411 Column_412 Column_413 Column_414 Column_415 Column_416 Column_417 Column_418 Column_419 Column_420 Column_421 Column_422 Column_423 Column_424 Column_425 Column_426 Column_427 Column_428 Column_429 Column_430 Column_431 Column_432 Column_433 Column_434 Column_435 Column_436 Column_437 Column_438 Column_439 Column_440 Column_441 Column_442 Column_443 Column_444 Column_445 Column_446 Column_447 Column_448 Column_449 Column_450 Column_451 Column_452 Column_453 Column_454 Column_455 Column_456 Column_457 Column_458 Column_459 Column_460 Column_461 Column_462 Column_463 Column_464 Column_465 Column_466 Column_467 Column_468 Column_469 Column_470 Column_471 Column_472 Column_473 Column_474 Column_475 Column_476 Column_477 Column_478 Column_479 Column_480 Column_481 Column_482 Column_483 Column_484 Column_485 Column_486 Column_487 Column_488 Column_489 Column_490 Column_491 Column_492 Column_493 Column_494 Column_495 Column_496 Column_497 Column_498 Column_499 Column_500 Column_501 Column_502 Column_503 Column_504 Column_505 Column_506 Column_507 Column_508 Column_509 Column_510 Column_511 Column_512 Column_513 Column_514 Column_515 Column_516 Column_517 Column_518 Column_519 Column_520 Column_521 Column_522 Column_523 Column_524 Column_525 Column_526 Column_527 Column_528 Column_529 Column_530 Column_531 Column_532 Column_533 Column_534 Column_535 Column_536 Column_537 Column_538 Column_539 Column_540 Column_541 Column_542 Column_543 Column_544 Column_545 Column_546 Column_547 Column_548 Column_549 Column_550 Column_551 Column_552 Column_553 Column_554 Column_555 Column_556 Column_557 Column_558 Column_559 Column_560 Column_561 Column_562 Column_563 Column_564 Column_565 Column_566 Column_567 Column_568 Column_569 Column_570 Column_571 Column_572 Column_573 Column_574 Column_575 Column_576 Column_577 Column_578 Column_579 Column_580 Column_581 Column_582 Column_583 Column_584 Column_585 Column_586 Column_587 Column_588 Column_589 Column_590 Column_591 Column_592 Column_593 Column_594 Column_595 Column_596 Column_597 Column_598 Column_599 Column_600 Column_601 Column_602 Column_603 Column_604 Column_605 Column_606 Column_607 Column_608 Column_609 Column_610 Column_611 Column_612 Column_613 Column_614 Column_615 Column_616 Column_617 Column_618 Column_619 Column_620 Column_621 Column_622 Column_623 Column_624 Column_625 Column_626 Column_627 Column_628 Column_629 Column_630 Column_631 Column_632 Column_633 Column_634 Column_635 Column_636 Column_637 Column_638 Column_639 Column_640 Column_641 Column_642 Column_643 Column_644 Column_645 Column_646 Column_647 Column_648 Column_649 Column_650 Column_651 Column_652 Column_653 Column_654 Column_655 Column_656 Column_657 Column_658 Column_659 Column_660 Column_661 Column_662 Column_663 Column_664 Column_665 Column_666 Column_667 Column_668 Column_669 Column_670 Column_671 Column_672 Column_673 Column_674 Column_675 Column_676 Column_677 Column_678 Column_679 Column_680 Column_681 Column_682 Column_683 Column_684 Column_685 Column_686 Column_687 Column_688 Column_689 Column_690 Column_691 Column_692 Column_693 Column_694 Column_695 Column_696 Column_697 Column_698 Column_699 Column_700 Column_701 Column_702 Column_703 Column_704 Column_705 Column_706 Column_707 Column_708 Column_709 Column_710 Column_711 Column_712 Column_713 Column_714 Column_715 Column_716 Column_717 Column_718 Column_719 Column_720 Column_721 Column_722 Column_723 Column_724 Column_725 Column_726 Column_727 Column_728 Column_729 Column_730 Column_731 Column_732 Column_733 Column_734 Column_735 Column_736 Column_737 Column_738 Column_739 Column_740 Column_741 Column_742 Column_743 Column_744 Column_745 Column_746 Column_747 Column_748 Column_749 Column_750 Column_751 Column_752 Column_753 Column_754 Column_755 Column_756 Column_757 Column_758 Column_759 Column_760 Column_761 Column_762 Column_763 Column_764 Column_765 Column_766 Column_767 Column_768 Column_769 Column_770 Column_771 Column_772 Column_773 Column_774 Column_775 Column_776 Column_777 Column_778 Column_779 Column_780 Column_781 Column_782 Column_783 Column_784 Column_785 Column_786 Column_787 Column_788 Column_789 Column_790 Column_791 Column_792 Column_793 Column_794 Column_795 Column_796 Column_797 Column_798 Column_799 Column_800 Column_801 Column_802 Column_803 Column_804 Column_805 Column_806 Column_807 Column_808 Column_809 Column_810 Column_811 Column_812 Column_813 Column_814 Column_815 Column_816 Column_817 Column_818 Column_819 Column_820 Column_821 Column_822 Column_823 Column_824 Column_825 Column_826 Column_827 Column_828 Column_829 Column_830 Column_831 Column_832 Column_833 Column_834 Column_835 Column_836 Column_837 Column_838 Column_839 Column_840 Column_841 Column_842 Column_843 Column_844 Column_845 Column_846 Column_847 Column_848 Column_849 Column_850 Column_851 Column_852 Column_853 Column_854 Column_855 Column_856 Column_857 Column_858 Column_859 Column_860 Column_861 Column_862 Column_863 Column_864 Column_865 Column_866 Column_867 Column_868 Column_869 Column_870 Column_871 Column_872 Column_873 Column_874 Column_875 Column_876 Column_877 Column_878 Column_879 Column_880 Column_881 Column_882 Column_883 Column_884 Column_885 Column_886 Column_887 Column_888 Column_889 Column_890 Column_891 Column_892 Column_893 Column_894 Column_895 Column_896 Column_897 Column_898 Column_899 Column_900 Column_901 Column_902 Column_903 Column_904 Column_905 Column_906 Column_907 Column_908 Column_909 Column_910 Column_911 Column_912 Column_913 Column_914 Column_915 Column_916 Column_917 Column_918 Column_919 Column_920 Column_921 Column_922 Column_923 Column_924 Column_925 Column_926 Column_927 Column_928 Column_929 Column_930 Column_931 Column_932 Column_933 Column_934 Column_935 Column_936 Column_937 Column_938 Column_939 Column_940 Column_941 Column_942 Column_943 Column_944 Column_945 Column_946 Column_947 Column_948 Column_949 Column_950 Column_951 Column_952 Column_953 Column_954 Column_955 Column_956 Column_957 Column_958 Column_959 Column_960 Column_961 Column_962 Column_963 Column_964 Column_965 Column_966 Column_967 Column_968 Column_969 Column_970 Column_971 Column_972 Column_973 Column_974 Column_975 Column_976 Column_977 Column_978 Column_979 Column_980 Column_981 Column_982 Column_983 Column_984 Column_985 Column_986 Column_987 Column_988 Column_989 Column_990 Column_991 Column_992 Column_993 Column_994 Column_995 Column_996 Column_997 Column_998 Column_999 Column_1000 Column_1001 Column_1002 Column_1003 Column_1004 Column_1005 Column_1006 Column_1007 Column_1008 Column_1009 Column_1010 Column_1011 Column_1012 Column_1013 Column_1014 Column_1015 Column_1016 Column_1017 Column_1018 Column_1019 Column_1020 Column_1021 Column_1022 Column_1023 Column_1024 Column_1025 Column_1026 Column_1027 Column_1028 Column_1029 Column_1030 Column_1031 Column_1032 Column_1033 Column_1034 Column_1035 Column_1036 Column_1037 Column_1038 Column_1039 Column_1040 Column_1041 Column_1042 Column_1043 Column_1044 Column_1045 Column_1046 Column_1047 Column_1048 Column_1049 Column_1050 Column_1051 Column_1052 Column_1053 Column_1054 Column_1055 Column_1056 Column_1057 Column_1058 Column_1059 Column_1060 Column_1061 Column_1062 Column_1063 Column_1064 Column_1065 Column_1066 Column_1067 Column_1068 Column_1069 Column_1070 Column_1071 Column_1072 Column_1073 Column_1074 Column_1075 Column_1076 Column_1077 Column_1078 Column_1079 Column_1080 Column_1081 Column_1082 Column_1083 Column_1084 Column_1085 Column_1086 Column_1087 Column_1088 Column_1089 Column_1090 Column_1091 Column_1092 Column_1093 Column_1094 Column_1095 Column_1096 Column_1097 Column_1098 Column_1099 Column_1100 Column_1101 Column_1102 Column_1103 Column_1104 Column_1105 Column_1106 Column_1107 Column_1108 Column_1109 Column_1110 Column_1111 Column_1112 Column_1113 Column_1114 Column_1115 Column_1116 Column_1117 Column_1118 Column_1119 Column_1120 Column_1121 Column_1122 Column_1123 Column_1124 Column_1125 Column_1126 Column_1127 Column_1128 Column_1129 Column_1130 Column_1131 Column_1132 Column_1133 Column_1134 Column_1135 Column_1136 Column_1137 Column_1138 Column_1139 Column_1140 Column_1141 Column_1142 Column_1143 Column_1144 Column_1145 Column_1146 Column_1147 Column_1148 Column_1149 Column_1150 Column_1151 Column_1152 Column_1153 Column_1154 Column_1155 Column_1156 Column_1157 Column_1158 Column_1159 Column_1160 Column_1161 Column_1162 Column_1163 Column_1164 Column_1165 Column_1166 Column_1167 Column_1168 Column_1169 Column_1170 Column_1171 Column_1172 Column_1173 Column_1174 Column_1175 Column_1176 Column_1177 Column_1178 Column_1179 Column_1180 Column_1181 Column_1182 Column_1183 Column_1184 Column_1185 Column_1186 Column_1187 Column_1188 Column_1189 Column_1190 Column_1191 Column_1192 Column_1193 Column_1194 Column_1195 Column_1196 Column_1197 Column_1198 Column_1199 Column_1200 Column_1201 Column_1202 Column_1203 Column_1204 Column_1205 Column_1206 Column_1207 Column_1208 Column_1209 Column_1210 Column_1211 Column_1212 Column_1213 Column_1214 Column_1215 Column_1216 Column_1217 Column_1218 Column_1219 Column_1220 Column_1221 Column_1222 Column_1223 Column_1224 Column_1225 Column_1226 Column_1227 Column_1228 Column_1229 Column_1230 Column_1231 Column_1232 Column_1233 Column_1234 Column_1235 Column_1236 Column_1237 Column_1238 Column_1239 Column_1240 Column_1241 Column_1242 Column_1243 Column_1244 Column_1245 Column_1246 Column_1247 Column_1248 Column_1249 Column_1250 Column_1251 Column_1252 Column_1253 Column_1254 Column_1255 Column_1256 Column_1257 Column_1258 Column_1259 Column_1260 Column_1261 Column_1262 Column_1263 Column_1264 Column_1265 Column_1266 Column_1267 Column_1268 Column_1269 Column_1270 Column_1271 Column_1272 Column_1273 Column_1274 Column_1275 Column_1276 Column_1277 Column_1278 Column_1279 Column_1280 Column_1281 Column_1282 Column_1283 Column_1284 Column_1285 Column_1286 Column_1287 Column_1288 Column_1289 Column_1290 Column_1291 Column_1292 Column_1293 Column_1294 Column_1295 Column_1296 Column_1297 Column_1298 Column_1299 Column_1300 Column_1301 Column_1302 Column_1303 Column_1304 Column_1305 Column_1306 Column_1307 Column_1308 Column_1309 Column_1310 Column_1311 Column_1312 Column_1313 Column_1314 Column_1315 Column_1316 Column_1317 Column_1318 Column_1319 Column_1320 Column_1321 Column_1322 Column_1323 Column_1324 Column_1325 Column_1326 Column_1327 Column_1328 Column_1329 Column_1330 Column_1331 Column_1332 Column_1333 Column_1334 Column_1335 Column_1336 Column_1337 Column_1338 Column_1339 Column_1340 Column_1341 Column_1342 Column_1343 Column_1344 Column_1345 Column_1346 Column_1347 Column_1348 Column_1349 Column_1350 Column_1351 Column_1352 Column_1353 Column_1354 Column_1355 Column_1356 Column_1357 Column_1358 Column_1359 Column_1360 Column_1361 Column_1362 Column_1363 Column_1364 Column_1365 Column_1366 Column_1367 Column_1368 Column_1369 Column_1370 Column_1371 Column_1372 Column_1373 Column_1374 Column_1375 Column_1376 Column_1377 Column_1378 Column_1379 Column_1380 Column_1381 Column_1382 Column_1383 Column_1384 Column_1385 Column_1386 Column_1387 Column_1388 Column_1389 Column_1390 Column_1391 Column_1392 Column_1393 Column_1394 Column_1395 Column_1396 Column_1397 Column_1398 Column_1399 Column_1400 Column_1401 Column_1402 Column_1403 Column_1404 Column_1405 Column_1406 Column_1407 Column_1408 Column_1409 Column_1410 Column_1411 Column_1412 Column_1413 Column_1414 Column_1415 Column_1416 Column_1417 Column_1418 Column_1419 Column_1420 Column_1421 Column_1422 Column_1423 Column_1424 Column_1425 Column_1426 Column_1427 Column_1428 Column_1429 Column_1430 Column_1431 Column_1432 Column_1433 Column_1434 Column_1435 Column_1436 Column_1437 Column_1438 Column_1439 Column_1440 Column_1441 Column_1442 Column_1443 Column_1444 Column_1445 Column_1446 Column_1447 Column_1448 Column_1449 Column_1450 Column_1451 Column_1452 Column_1453 Column_1454 Column_1455 Column_1456 Column_1457 Column_1458 Column_1459 Column_1460 Column_1461 Column_1462 Column_1463 Column_1464 Column_1465 Column_1466 Column_1467 Column_1468 Column_1469 Column_1470 Column_1471 Column_1472 Column_1473 Column_1474 Column_1475 Column_1476 Column_1477 Column_1478 Column_1479 Column_1480 Column_1481 Column_1482 Column_1483 Column_1484 Column_1485 Column_1486 Column_1487 Column_1488 Column_1489 Column_1490 Column_1491 Column_1492 Column_1493 Column_1494 Column_1495 Column_1496 Column_1497 Column_1498 Column_1499 Column_1500 Column_1501 Column_1502 Column_1503 Column_1504 Column_1505 Column_1506 Column_1507 Column_1508 Column_1509 Column_1510 Column_1511 Column_1512 Column_1513 Column_1514 Column_1515 Column_1516 Column_1517 Column_1518 Column_1519 Column_1520 Column_1521 Column_1522 Column_1523 Column_1524 Column_1525 Column_1526 Column_1527 Column_1528 Column_1529 Column_1530 Column_1531 Column_1532 Column_1533 Column_1534 Column_1535 Column_1536 Column_1537 Column_1538 Column_1539 Column_1540 Column_1541 Column_1542 Column_1543 Column_1544 Column_1545 Column_1546 Column_1547 Column_1548 Column_1549 Column_1550 Column_1551 Column_1552 Column_1553 Column_1554 Column_1555 Column_1556 Column_1557 Column_1558 Column_1559 Column_1560 Column_1561 Column_1562 Column_1563 Column_1564 Column_1565 Column_1566 Column_1567 Column_1568 Column_1569 Column_1570 Column_1571 Column_1572 Column_1573 Column_1574 Column_1575 Column_1576 Column_1577 Column_1578 Column_1579 Column_1580 Column_1581 Column_1582 Column_1583 Column_1584 Column_1585 Column_1586 Column_1587 Column_1588 Column_1589 Column_1590 Column_1591 Column_1592 Column_1593 Column_1594 Column_1595 Column_1596 Column_1597 Column_1598 Column_1599 Column_1600 Column_1601 Column_1602 Column_1603 Column_1604 Column_1605 Column_1606 Column_1607 Column_1608 Column_1609 Column_1610 Column_1611 Column_1612 Column_1613 Column_1614 Column_1615 Column_1616 Column_1617 Column_1618 Column_1619 Column_1620 Column_1621 Column_1622 Column_1623 Column_1624 Column_1625 Column_1626 Column_1627 Column_1628 Column_1629 Column_1630 Column_1631 Column_1632 Column_1633 Column_1634 Column_1635 Column_1636 Column_1637 Column_1638 Column_1639 Column_1640 Column_1641 Column_1642 Column_1643 Column_1644 Column_1645 Column_1646 Column_1647 Column_1648 Column_1649 Column_1650 Column_1651 Column_1652 Column_1653 Column_1654 Column_1655 Column_1656 Column_1657 Column_1658 Column_1659 Column_1660 Column_1661 Column_1662 Column_1663 Column_1664 Column_1665 Column_1666 Column_1667 Column_1668 Column_1669 Column_1670 Column_1671 Column_1672 Column_1673 Column_1674 Column_1675 Column_1676 Column_1677 Column_1678 Column_1679 Column_1680 Column_1681 Column_1682 Column_1683 Column_1684 Column_1685 Column_1686 Column_1687 Column_1688 Column_1689 Column_1690 Column_1691 Column_1692 Column_1693 Column_1694 Column_1695 Column_1696 Column_1697 Column_1698 Column_1699 Column_1700 Column_1701 Column_1702 Column_1703 Column_1704 Column_1705 Column_1706 Column_1707 Column_1708 Column_1709 Column_1710 Column_1711 Column_1712 Column_1713 Column_1714 Column_1715 Column_1716 Column_1717 Column_1718 Column_1719 Column_1720 Column_1721 Column_1722 Column_1723 Column_1724 Column_1725 Column_1726 Column_1727 Column_1728 Column_1729 Column_1730 Column_1731 Column_1732 Column_1733 Column_1734 Column_1735 Column_1736 Column_1737 Column_1738 Column_1739 Column_1740 Column_1741 Column_1742 Column_1743 Column_1744 Column_1745 Column_1746 Column_1747 Column_1748 Column_1749 Column_1750 Column_1751 Column_1752 Column_1753 Column_1754 Column_1755 Column_1756 Column_1757 Column_1758 Column_1759 Column_1760 Column_1761 Column_1762 Column_1763 Column_1764 Column_1765 Column_1766 Column_1767 Column_1768 Column_1769 Column_1770 Column_1771 Column_1772 Column_1773 Column_1774 Column_1775 Column_1776 Column_1777 Column_1778 Column_1779 Column_1780 Column_1781 Column_1782 Column_1783 Column_1784 Column_1785 Column_1786 Column_1787 Column_1788 Column_1789 Column_1790 Column_1791 Column_1792 Column_1793 Column_1794 Column_1795 Column_1796 Column_1797 Column_1798 Column_1799 Column_1800 Column_1801 Column_1802 Column_1803 Column_1804 Column_1805 Column_1806 Column_1807 Column_1808 Column_1809 Column_1810 Column_1811 Column_1812 Column_1813 Column_1814 Column_1815 Column_1816 Column_1817 Column_1818 Column_1819 Column_1820 Column_1821 Column_1822 Column_1823 Column_1824 Column_1825 Column_1826 Column_1827 Column_1828 Column_1829 Column_1830 Column_1831 Column_1832 Column_1833 Column_1834 Column_1835 Column_1836 Column_1837 Column_1838 Column_1839 Column_1840 Column_1841 Column_1842 Column_1843 Column_1844 Column_1845 Column_1846 Column_1847 Column_1848 Column_1849 Column_1850 Column_1851 Column_1852 Column_1853 Column_1854 Column_1855 Column_1856 Column_1857 Column_1858 Column_1859 Column_1860 Column_1861 Column_1862 Column_1863 Column_1864 Column_1865 Column_1866 Column_1867 Column_1868 Column_1869 Column_1870 Column_1871 Column_1872 Column_1873 Column_1874 Column_1875 Column_1876 Column_1877 Column_1878 Column_1879 Column_1880 Column_1881 Column_1882 Column_1883 Column_1884 Column_1885 Column_1886 Column_1887 Column_1888 Column_1889 Column_1890 Column_1891 Column_1892 Column_1893 Column_1894 Column_1895 Column_1896 Column_1897 Column_1898 Column_1899 Column_1900 Column_1901 Column_1902 Column_1903 Column_1904 Column_1905 Column_1906 Column_1907 Column_1908 Column_1909 Column_1910 Column_1911 Column_1912 Column_1913 Column_1914 Column_1915 Column_1916 Column_1917 Column_1918 Column_1919 Column_1920 Column_1921 Column_1922 Column_1923 Column_1924 Column_1925 Column_1926 Column_1927 Column_1928 Column_1929 Column_1930 Column_1931 Column_1932 Column_1933 Column_1934 Column_1935 Column_1936 Column_1937 Column_1938 Column_1939 Column_1940 Column_1941 Column_1942 Column_1943 Column_1944 Column_1945 Column_1946 Column_1947 Column_1948 Column_1949 Column_1950 Column_1951 Column_1952 Column_1953 Column_1954 Column_1955 Column_1956 Column_1957 Column_1958 Column_1959 Column_1960 Column_1961 Column_1962 Column_1963 Column_1964 Column_1965 Column_1966 Column_1967 Column_1968 Column_1969 Column_1970 Column_1971 Column_1972 Column_1973 Column_1974 Column_1975 Column_1976 Column_1977 Column_1978 Column_1979 Column_1980 Column_1981 Column_1982 Column_1983 Column_1984 Column_1985 Column_1986 Column_1987 Column_1988 Column_1989 Column_1990 Column_1991 Column_1992 Column_1993 Column_1994 Column_1995 Column_1996 Column_1997 Column_1998 Column_1999 Column_2000 Column_2001 Column_2002 Column_2003 Column_2004 Column_2005 Column_2006 Column_2007 Column_2008 Column_2009 Column_2010 Column_2011 Column_2012 Column_2013 Column_2014 Column_2015 Column_2016 Column_2017 Column_2018 Column_2019 Column_2020 Column_2021 Column_2022 Column_2023 Column_2024 Column_2025 Column_2026 Column_2027 Column_2028 Column_2029 Column_2030 Column_2031 Column_2032 Column_2033 Column_2034 Column_2035 Column_2036 Column_2037 Column_2038 Column_2039 Column_2040 Column_2041 Column_2042 Column_2043 Column_2044 Column_2045 Column_2046 Column_2047 Column_2048 Column_2049 Column_2050 Column_2051 Column_2052 Column_2053 Column_2054 Column_2055 Column_2056 Column_2057 Column_2058 Column_2059 Column_2060 Column_2061 Column_2062 Column_2063 Column_2064 Column_2065 Column_2066 Column_2067 Column_2068 Column_2069 Column_2070 Column_2071 Column_2072 Column_2073 Column_2074 Column_2075 Column_2076 Column_2077 Column_2078 Column_2079 Column_2080 Column_2081 Column_2082 Column_2083 Column_2084 Column_2085 Column_2086 Column_2087 Column_2088 Column_2089 Column_2090 Column_2091 Column_2092 Column_2093 Column_2094 Column_2095 Column_2096 Column_2097 Column_2098 Column_2099 Column_2100 Column_2101 Column_2102 Column_2103 Column_2104 Column_2105 Column_2106 Column_2107 Column_2108 Column_2109 Column_2110 Column_2111 Column_2112 Column_2113 Column_2114 Column_2115 Column_2116 Column_2117 Column_2118 Column_2119 Column_2120 Column_2121 Column_2122 Column_2123 Column_2124 Column_2125 Column_2126 Column_2127 Column_2128 Column_2129 Column_2130 Column_2131 Column_2132 Column_2133 Column_2134 Column_2135 Column_2136 Column_2137 Column_2138 Column_2139 Column_2140 Column_2141 Column_2142 Column_2143 Column_2144 Column_2145 Column_2146 Column_2147 Column_2148 Column_2149 Column_2150 Column_2151 Column_2152 Column_2153 Column_2154 Column_2155 Column_2156 Column_2157 Column_2158 Column_2159 Column_2160 Column_2161 Column_2162 Column_2163 Column_2164 Column_2165 Column_2166 Column_2167 Column_2168 Column_2169 Column_2170 Column_2171 Column_2172 Column_2173 Column_2174 Column_2175 Column_2176 Column_2177 Column_2178 Column_2179 Column_2180 Column_2181 Column_2182 Column_2183 Column_2184 Column_2185 Column_2186 Column_2187 Column_2188 Column_2189 Column_2190 Column_2191 Column_2192 Column_2193 Column_2194 Column_2195 Column_2196 Column_2197 Column_2198 Column_2199 Column_2200 Column_2201 Column_2202 Column_2203 Column_2204 Column_2205 Column_2206 Column_2207 Column_2208 Column_2209 Column_2210 Column_2211 Column_2212 Column_2213 Column_2214 Column_2215 Column_2216 Column_2217 Column_2218 Column_2219 Column_2220 Column_2221 Column_2222 Column_2223 Column_2224 Column_2225 Column_2226 Column_2227 Column_2228 Column_2229 Column_2230 Column_2231 Column_2232 Column_2233 Column_2234 Column_2235 Column_2236 Column_2237 Column_2238 Column_2239 Column_2240 Column_2241 Column_2242 Column_2243 Column_2244 Column_2245 Column_2246 Column_2247 Column_2248 Column_2249 Column_2250 Column_2251 Column_2252 Column_2253 Column_2254 Column_2255 Column_2256 Column_2257 Column_2258 Column_2259 Column_2260 Column_2261 Column_2262 Column_2263 Column_2264 Column_2265 Column_2266 Column_2267 Column_2268 Column_2269 Column_2270 Column_2271 Column_2272 Column_2273 Column_2274 Column_2275 Column_2276 Column_2277 Column_2278 Column_2279 Column_2280 Column_2281 Column_2282 Column_2283 Column_2284 Column_2285 Column_2286 Column_2287 Column_2288 Column_2289 Column_2290 Column_2291 Column_2292 Column_2293 Column_2294 Column_2295 Column_2296 Column_2297 Column_2298 Column_2299 Column_2300 Column_2301 Column_2302 Column_2303 Column_2304 Column_2305 Column_2306 Column_2307 Column_2308 Column_2309 Column_2310 Column_2311 Column_2312 Column_2313 Column_2314 Column_2315 Column_2316 Column_2317 Column_2318 Column_2319 Column_2320 Column_2321 Column_2322 Column_2323 Column_2324 Column_2325 Column_2326 Column_2327 Column_2328 Column_2329 Column_2330 Column_2331 Column_2332 Column_2333 Column_2334 Column_2335 Column_2336 Column_2337 Column_2338 Column_2339 Column_2340 Column_2341 Column_2342 Column_2343 Column_2344 Column_2345 Column_2346 Column_2347 Column_2348 Column_2349 Column_2350 Column_2351 Column_2352 Column_2353 Column_2354 Column_2355 Column_2356 Column_2357 Column_2358 Column_2359 Column_2360 Column_2361 Column_2362 Column_2363 Column_2364 Column_2365 Column_2366 Column_2367 Column_2368 Column_2369 Column_2370 Column_2371 Column_2372 Column_2373 Column_2374 Column_2375 Column_2376 Column_2377 Column_2378 Column_2379 Column_2380 Column_2381 Column_2382 Column_2383 Column_2384 Column_2385 Column_2386 Column_2387 Column_2388 Column_2389 Column_2390 Column_2391 Column_2392 Column_2393 Column_2394 Column_2395 Column_2396 Column_2397 Column_2398 Column_2399 Column_2400 Column_2401 Column_2402 Column_2403 Column_2404 Column_2405 Column_2406 Column_2407 Column_2408 Column_2409 Column_2410 Column_2411 Column_2412 Column_2413 Column_2414 Column_2415 Column_2416 Column_2417 Column_2418 Column_2419 Column_2420 Column_2421 Column_2422 Column_2423 Column_2424 Column_2425 Column_2426 Column_2427 Column_2428 Column_2429 Column_2430 Column_2431 Column_2432 Column_2433 Column_2434 Column_2435 Column_2436 Column_2437 Column_2438 Column_2439 Column_2440 Column_2441 Column_2442 Column_2443 Column_2444 Column_2445 Column_2446 Column_2447 Column_2448 Column_2449 Column_2450 Column_2451 Column_2452 Column_2453 Column_2454 Column_2455 Column_2456 Column_2457 Column_2458 Column_2459 Column_2460 Column_2461 Column_2462 Column_2463 Column_2464 Column_2465 Column_2466 Column_2467 Column_2468 Column_2469 Column_2470 Column_2471 Column_2472 Column_2473 Column_2474 Column_2475 Column_2476 Column_2477 Column_2478 Column_2479 Column_2480 Column_2481 Column_2482 Column_2483 Column_2484 Column_2485 Column_2486 Column_2487 Column_2488 Column_2489 Column_2490 Column_2491 Column_2492 Column_2493 Column_2494 Column_2495 Column_2496 Column_2497 Column_2498 Column_2499 Column_2500 Column_2501 Column_2502 Column_2503 Column_2504 Column_2505 Column_2506 Column_2507 Column_2508 Column_2509 Column_2510 Column_2511 Column_2512 Column_2513 Column_2514 Column_2515 Column_2516 Column_2517 Column_2518 Column_2519 Column_2520 Column_2521 Column_2522 Column_2523 Column_2524 Column_2525 Column_2526 Column_2527 Column_2528 Column_2529 Column_2530 Column_2531 Column_2532 Column_2533 Column_2534 Column_2535 Column_2536 Column_2537 Column_2538 Column_2539 Column_2540 Column_2541 Column_2542 Column_2543 Column_2544 Column_2545 Column_2546 Column_2547 Column_2548 Column_2549 Column_2550 Column_2551 Column_2552 Column_2553 Column_2554 Column_2555 Column_2556 Column_2557 Column_2558 Column_2559 Column_2560 Column_2561 Column_2562 Column_2563 Column_2564 Column_2565 Column_2566 Column_2567 Column_2568 Column_2569 Column_2570 Column_2571 Column_2572 Column_2573 Column_2574 Column_2575 Column_2576 Column_2577 Column_2578 Column_2579 Column_2580 Column_2581 Column_2582 Column_2583 Column_2584 Column_2585 Column_2586 Column_2587 Column_2588 Column_2589 Column_2590 Column_2591 Column_2592 Column_2593 Column_2594 Column_2595 Column_2596 Column_2597 Column_2598 Column_2599 Column_2600 Column_2601 Column_2602 Column_2603 Column_2604 Column_2605 Column_2606 Column_2607 Column_2608 Column_2609 Column_2610 Column_2611 Column_2612 Column_2613 Column_2614 Column_2615 Column_2616 Column_2617 Column_2618 Column_2619 Column_2620 Column_2621 Column_2622 Column_2623 Column_2624 Column_2625 Column_2626 Column_2627 Column_2628 Column_2629 Column_2630 Column_2631 Column_2632 Column_2633 Column_2634 Column_2635 Column_2636 Column_2637 Column_2638 Column_2639 Column_2640 Column_2641 Column_2642 Column_2643 Column_2644 Column_2645 Column_2646 Column_2647 Column_2648 Column_2649 Column_2650 Column_2651 Column_2652 Column_2653 Column_2654 Column_2655 Column_2656 Column_2657 Column_2658 Column_2659 Column_2660 Column_2661 Column_2662 Column_2663 Column_2664 Column_2665 Column_2666 Column_2667 Column_2668 Column_2669 Column_2670 Column_2671 Column_2672 Column_2673 Column_2674 Column_2675 Column_2676 Column_2677 Column_2678 Column_2679 Column_2680 Column_2681 Column_2682 Column_2683 Column_2684 Column_2685 Column_2686 Column_2687 Column_2688 Column_2689 Column_2690 Column_2691 Column_2692 Column_2693 Column_2694 Column_2695 Column_2696 Column_2697 Column_2698 Column_2699 Column_2700 Column_2701 Column_2702 Column_2703 Column_2704 Column_2705 Column_2706 Column_2707 Column_2708 Column_2709 Column_2710 Column_2711 Column_2712 Column_2713 Column_2714 Column_2715 Column_2716 Column_2717 Column_2718 Column_2719 Column_2720 Column_2721 Column_2722 Column_2723 Column_2724 Column_2725 Column_2726 Column_2727 Column_2728 Column_2729 Column_2730 Column_2731 Column_2732 Column_2733 Column_2734 Column_2735 Column_2736 Column_2737 Column_2738 Column_2739 Column_2740 Column_2741 Column_2742 Column_2743 Column_2744 Column_2745 Column_2746 Column_2747 Column_2748 Column_2749 Column_2750 Column_2751 Column_2752 Column_2753 Column_2754 Column_2755 Column_2756 Column_2757 Column_2758 Column_2759 Column_2760 Column_2761 Column_2762 Column_2763 Column_2764 Column_2765 Column_2766 Column_2767 Column_2768 Column_2769 Column_2770 Column_2771 Column_2772 Column_2773 Column_2774 Column_2775 Column_2776 Column_2777 Column_2778 Column_2779 Column_2780 Column_2781 Column_2782 Column_2783 Column_2784 Column_2785 Column_2786 Column_2787 Column_2788 Column_2789 Column_2790 Column_2791 Column_2792 Column_2793 Column_2794 Column_2795 Column_2796 Column_2797 Column_2798 Column_2799 Column_2800 Column_2801 Column_2802 Column_2803 Column_2804 Column_2805 Column_2806 Column_2807 Column_2808 Column_2809 Column_2810 Column_2811 Column_2812 Column_2813 Column_2814 Column_2815 Column_2816 Column_2817 Column_2818 Column_2819 Column_2820 Column_2821 Column_2822 Column_2823 Column_2824 Column_2825 Column_2826 Column_2827 Column_2828 Column_2829 Column_2830 Column_2831 Column_2832 Column_2833 Column_2834 Column_2835 Column_2836 Column_2837 Column_2838 Column_2839 Column_2840 Column_2841 Column_2842 Column_2843 Column_2844 Column_2845 Column_2846 Column_2847 Column_2848 Column_2849 Column_2850 Column_2851 Column_2852 Column_2853 Column_2854 Column_2855 Column_2856 Column_2857 Column_2858 Column_2859 Column_2860 Column_2861 Column_2862 Column_2863 Column_2864 Column_2865 Column_2866 Column_2867 Column_2868 Column_2869 Column_2870 Column_2871 Column_2872 Column_2873 Column_2874 Column_2875 Column_2876 Column_2877 Column_2878 Column_2879 Column_2880 Column_2881 Column_2882 Column_2883 Column_2884 Column_2885 Column_2886 Column_2887 Column_2888 Column_2889 Column_2890 Column_2891 Column_2892 Column_2893 Column_2894 Column_2895 Column_2896 Column_2897 Column_2898 Column_2899 Column_2900 Column_2901 Column_2902 Column_2903 Column_2904 Column_2905 Column_2906 Column_2907 Column_2908 Column_2909 Column_2910 Column_2911 Column_2912 Column_2913 Column_2914 Column_2915 Column_2916 Column_2917 Column_2918 Column_2919 Column_2920 Column_2921 Column_2922 Column_2923 Column_2924 Column_2925 Column_2926 Column_2927 Column_2928 Column_2929 Column_2930 Column_2931 Column_2932 Column_2933 Column_2934 Column_2935 Column_2936 Column_2937 Column_2938 Column_2939 Column_2940 Column_2941 Column_2942 Column_2943 Column_2944 Column_2945 Column_2946 Column_2947 Column_2948 Column_2949 Column_2950 Column_2951 Column_2952 Column_2953 Column_2954 Column_2955 Column_2956 Column_2957 Column_2958 Column_2959 Column_2960 Column_2961 Column_2962 Column_2963 Column_2964 Column_2965 Column_2966 Column_2967 Column_2968 Column_2969 Column_2970 Column_2971 Column_2972 Column_2973 Column_2974 Column_2975 Column_2976 Column_2977 Column_2978 Column_2979 Column_2980 Column_2981 Column_2982 Column_2983 Column_2984 Column_2985 Column_2986 Column_2987 Column_2988 Column_2989 Column_2990 Column_2991 Column_2992 Column_2993 Column_2994 Column_2995 Column_2996 Column_2997 Column_2998 Column_2999 Column_3000 Column_3001 Column_3002 Column_3003 Column_3004 Column_3005 Column_3006 Column_3007 Column_3008 Column_3009 Column_3010 Column_3011 Column_3012 Column_3013 Column_3014 Column_3015 Column_3016 Column_3017 Column_3018 Column_3019 Column_3020 Column_3021 Column_3022 Column_3023 Column_3024 Column_3025 Column_3026 Column_3027 Column_3028 Column_3029 Column_3030 Column_3031 Column_3032 Column_3033 Column_3034 Column_3035 Column_3036 Column_3037 Column_3038 Column_3039 Column_3040 Column_3041 Column_3042 Column_3043 Column_3044 Column_3045 Column_3046 Column_3047 Column_3048 Column_3049 Column_3050 Column_3051 Column_3052 Column_3053 Column_3054 Column_3055 Column_3056 Column_3057 Column_3058 Column_3059 Column_3060 Column_3061 Column_3062 Column_3063 Column_3064 Column_3065 Column_3066 Column_3067 Column_3068 Column_3069 Column_3070 Column_3071 Column_3072 Column_3073 Column_3074 Column_3075 Column_3076 Column_3077 Column_3078 Column_3079 Column_3080 Column_3081 Column_3082 Column_3083 Column_3084 Column_3085 Column_3086 Column_3087 Column_3088 Column_3089 Column_3090 Column_3091 Column_3092 Column_3093 Column_3094 Column_3095 Column_3096 Column_3097 Column_3098 Column_3099 Column_3100 Column_3101 Column_3102 Column_3103 Column_3104 Column_3105 Column_3106 Column_3107 Column_3108 Column_3109 Column_3110 Column_3111 Column_3112 Column_3113 Column_3114 Column_3115 Column_3116 Column_3117 Column_3118 Column_3119 Column_3120 Column_3121 Column_3122 Column_3123 Column_3124 Column_3125 Column_3126 Column_3127 Column_3128 Column_3129 Column_3130 Column_3131 Column_3132 Column_3133 Column_3134 Column_3135 Column_3136 Column_3137 Column_3138 Column_3139 Column_3140 Column_3141 Column_3142 Column_3143 Column_3144 Column_3145 Column_3146 Column_3147 Column_3148 Column_3149 Column_3150 Column_3151 Column_3152 Column_3153 Column_3154 Column_3155 Column_3156 Column_3157 Column_3158 Column_3159 Column_3160 Column_3161 Column_3162 Column_3163 Column_3164 Column_3165 Column_3166 Column_3167 Column_3168 Column_3169 Column_3170 Column_3171 Column_3172 Column_3173 Column_3174 Column_3175 Column_3176 Column_3177 Column_3178 Column_3179 Column_3180 Column_3181 Column_3182 Column_3183 Column_3184 Column_3185 Column_3186 Column_3187 Column_3188 Column_3189 Column_3190 Column_3191 Column_3192 Column_3193 Column_3194 Column_3195 Column_3196 Column_3197 Column_3198 Column_3199 Column_3200 Column_3201 Column_3202 Column_3203 Column_3204 Column_3205 Column_3206 Column_3207 Column_3208 Column_3209 Column_3210 Column_3211 Column_3212 Column_3213 Column_3214 Column_3215 Column_3216 Column_3217 Column_3218 Column_3219 Column_3220 Column_3221 Column_3222 Column_3223 Column_3224 Column_3225 Column_3226 Column_3227 Column_3228 Column_3229 Column_3230 Column_3231 Column_3232 Column_3233 Column_3234 Column_3235 Column_3236 Column_3237 Column_3238 Column_3239 Column_3240 Column_3241 Column_3242 Column_3243 Column_3244 Column_3245 Column_3246 Column_3247 Column_3248 Column_3249 Column_3250 Column_3251 Column_3252 Column_3253 Column_3254 Column_3255 Column_3256 Column_3257 Column_3258 Column_3259 Column_3260 Column_3261 Column_3262 Column_3263 Column_3264 Column_3265 Column_3266 Column_3267 Column_3268 Column_3269 Column_3270 Column_3271 Column_3272 Column_3273 Column_3274 Column_3275 Column_3276 Column_3277 Column_3278 Column_3279 Column_3280 Column_3281 Column_3282 Column_3283 Column_3284 Column_3285 Column_3286 Column_3287 Column_3288 Column_3289 Column_3290 Column_3291 Column_3292 Column_3293 Column_3294 Column_3295 Column_3296 Column_3297 Column_3298 Column_3299 Column_3300 Column_3301 Column_3302 Column_3303 Column_3304 Column_3305 Column_3306 Column_3307 Column_3308 Column_3309 Column_3310 Column_3311 Column_3312 Column_3313 Column_3314 Column_3315 Column_3316 Column_3317 Column_3318 Column_3319 Column_3320 Column_3321 Column_3322 Column_3323 Column_3324 Column_3325 Column_3326 Column_3327 Column_3328 Column_3329 Column_3330 Column_3331 Column_3332 Column_3333 Column_3334 Column_3335 Column_3336 Column_3337 Column_3338 Column_3339 Column_3340 Column_3341 Column_3342 Column_3343 Column_3344 Column_3345 Column_3346 Column_3347 Column_3348 Column_3349 Column_3350 Column_3351 Column_3352 Column_3353 Column_3354 Column_3355 Column_3356 Column_3357 Column_3358 Column_3359 Column_3360 Column_3361 Column_3362 Column_3363 Column_3364 Column_3365 Column_3366 Column_3367 Column_3368 Column_3369 Column_3370 Column_3371 Column_3372 Column_3373 Column_3374 Column_3375 Column_3376 Column_3377 Column_3378 Column_3379 Column_3380 Column_3381 Column_3382 Column_3383 Column_3384 Column_3385 Column_3386 Column_3387 Column_3388 Column_3389 Column_3390 Column_3391 Column_3392 Column_3393 Column_3394 Column_3395 Column_3396 Column_3397 Column_3398 Column_3399 Column_3400 Column_3401 Column_3402 Column_3403 Column_3404 Column_3405 Column_3406 Column_3407 Column_3408 Column_3409 Column_3410 Column_3411 Column_3412 Column_3413 Column_3414 Column_3415 Column_3416 Column_3417 Column_3418 Column_3419 Column_3420 Column_3421 Column_3422 Column_3423 Column_3424 Column_3425 Column_3426 Column_3427 Column_3428 Column_3429 Column_3430 Column_3431 Column_3432 Column_3433 Column_3434 Column_3435 Column_3436 Column_3437 Column_3438 Column_3439 Column_3440 Column_3441 Column_3442 Column_3443 Column_3444 Column_3445 Column_3446 Column_3447 Column_3448 Column_3449 Column_3450 Column_3451 Column_3452 Column_3453 Column_3454 Column_3455 Column_3456 Column_3457 Column_3458 Column_3459 Column_3460 Column_3461 Column_3462 Column_3463 Column_3464 Column_3465 Column_3466 Column_3467 Column_3468 Column_3469 Column_3470 Column_3471 Column_3472 Column_3473 Column_3474 Column_3475 Column_3476 Column_3477 Column_3478 Column_3479 Column_3480 Column_3481 Column_3482 Column_3483 Column_3484 Column_3485 Column_3486 Column_3487 Column_3488 Column_3489 Column_3490 Column_3491 Column_3492 Column_3493 Column_3494 Column_3495 Column_3496 Column_3497 Column_3498 Column_3499 Column_3500 Column_3501 Column_3502 Column_3503 Column_3504 Column_3505 Column_3506 Column_3507 Column_3508 Column_3509 Column_3510 Column_3511 Column_3512 Column_3513 Column_3514 Column_3515 Column_3516 Column_3517 Column_3518 Column_3519 Column_3520 Column_3521 Column_3522 Column_3523 Column_3524 Column_3525 Column_3526 Column_3527 Column_3528 Column_3529 Column_3530 Column_3531 Column_3532 Column_3533 Column_3534 Column_3535 Column_3536 Column_3537 Column_3538 Column_3539 Column_3540 Column_3541 Column_3542 Column_3543 Column_3544 Column_3545 Column_3546 Column_3547 Column_3548 Column_3549 Column_3550 Column_3551 Column_3552 Column_3553 Column_3554 Column_3555 Column_3556 Column_3557 Column_3558 Column_3559 Column_3560 Column_3561 Column_3562 Column_3563 Column_3564 Column_3565 Column_3566 Column_3567 Column_3568 Column_3569 Column_3570 Column_3571 Column_3572 Column_3573 Column_3574 Column_3575 Column_3576 Column_3577 Column_3578 Column_3579 Column_3580 Column_3581 Column_3582 Column_3583 Column_3584 Column_3585 Column_3586 Column_3587 Column_3588 Column_3589 Column_3590 Column_3591 Column_3592 Column_3593 Column_3594 Column_3595 Column_3596 Column_3597 Column_3598 Column_3599 Column_3600 Column_3601 Column_3602 Column_3603 Column_3604 Column_3605 Column_3606 Column_3607 Column_3608 Column_3609 Column_3610 Column_3611 Column_3612 Column_3613 Column_3614 Column_3615 Column_3616 Column_3617 Column_3618 Column_3619 Column_3620 Column_3621 Column_3622 Column_3623 Column_3624 Column_3625 Column_3626 Column_3627 Column_3628 Column_3629 Column_3630 Column_3631 Column_3632 Column_3633 Column_3634 Column_3635 Column_3636 Column_3637 Column_3638 Column_3639 Column_3640 Column_3641 Column_3642 Column_3643 Column_3644 Column_3645 Column_3646 Column_3647 Column_3648 Column_3649 Column_3650 Column_3651 Column_3652 Column_3653 Column_3654 Column_3655 Column_3656 Column_3657 Column_3658 Column_3659 Column_3660 Column_3661 Column_3662 Column_3663 Column_3664 Column_3665 Column_3666 Column_3667 Column_3668 Column_3669 Column_3670 Column_3671 Column_3672 Column_3673 Column_3674 Column_3675 Column_3676 Column_3677 Column_3678 Column_3679 Column_3680 Column_3681 Column_3682 Column_3683 Column_3684 Column_3685 Column_3686 Column_3687 Column_3688 Column_3689 Column_3690 Column_3691 Column_3692 Column_3693 Column_3694 Column_3695 Column_3696 Column_3697 Column_3698 Column_3699 Column_3700 Column_3701 Column_3702 Column_3703 Column_3704 Column_3705 Column_3706 Column_3707 Column_3708 Column_3709 Column_3710 Column_3711 Column_3712 Column_3713 Column_3714 Column_3715 Column_3716 Column_3717 Column_3718 Column_3719 Column_3720 Column_3721 Column_3722 Column_3723 Column_3724 Column_3725 Column_3726 Column_3727 Column_3728 Column_3729 Column_3730 Column_3731 Column_3732 Column_3733 Column_3734 Column_3735 Column_3736 Column_3737 Column_3738 Column_3739 Column_3740 Column_3741 Column_3742 Column_3743 Column_3744 Column_3745 Column_3746 Column_3747 Column_3748 Column_3749 Column_3750 Column_3751 Column_3752 Column_3753 Column_3754 Column_3755 Column_3756 Column_3757 Column_3758 Column_3759 Column_3760 Column_3761 Column_3762 Column_3763 Column_3764 Column_3765 Column_3766 Column_3767 Column_3768 Column_3769 Column_3770 Column_3771 Column_3772 Column_3773 Column_3774 Column_3775 Column_3776 Column_3777 Column_3778 Column_3779 Column_3780 Column_3781 Column_3782 Column_3783 Column_3784 Column_3785 Column_3786 Column_3787 Column_3788 Column_3789 Column_3790 Column_3791 Column_3792 Column_3793 Column_3794 Column_3795 Column_3796 Column_3797 Column_3798 Column_3799 Column_3800 Column_3801 Column_3802 Column_3803 Column_3804 Column_3805 Column_3806 Column_3807 Column_3808 Column_3809 Column_3810 Column_3811 Column_3812 Column_3813 Column_3814 Column_3815 Column_3816 Column_3817 Column_3818 Column_3819 Column_3820 Column_3821 Column_3822 Column_3823 Column_3824 Column_3825 Column_3826 Column_3827 Column_3828 Column_3829 Column_3830 Column_3831 Column_3832 Column_3833 Column_3834 Column_3835 Column_3836 Column_3837 Column_3838 Column_3839 Column_3840 Column_3841 Column_3842 Column_3843 Column_3844 Column_3845 Column_3846 Column_3847 Column_3848 Column_3849 Column_3850 Column_3851 Column_3852 Column_3853 Column_3854 Column_3855 Column_3856 Column_3857 Column_3858 Column_3859 Column_3860 Column_3861 Column_3862 Column_3863 Column_3864 Column_3865 Column_3866 Column_3867 Column_3868 Column_3869 Column_3870 Column_3871 Column_3872 Column_3873 Column_3874 Column_3875 Column_3876 Column_3877 Column_3878 Column_3879 Column_3880 Column_3881 Column_3882 Column_3883 Column_3884 Column_3885 Column_3886 Column_3887 Column_3888 Column_3889 Column_3890 Column_3891 Column_3892 Column_3893 Column_3894 Column_3895 Column_3896 Column_3897 Column_3898 Column_3899 Column_3900 Column_3901 Column_3902 Column_3903 Column_3904 Column_3905 Column_3906 Column_3907 Column_3908 Column_3909 Column_3910 Column_3911 Column_3912 Column_3913 Column_3914 Column_3915 Column_3916 Column_3917 Column_3918 Column_3919 Column_3920 Column_3921 Column_3922 Column_3923 Column_3924 Column_3925 Column_3926 Column_3927 Column_3928 Column_3929 Column_3930 Column_3931 Column_3932 Column_3933 Column_3934 Column_3935 Column_3936 Column_3937 Column_3938 Column_3939 Column_3940 Column_3941 Column_3942 Column_3943 Column_3944 Column_3945 Column_3946 Column_3947 Column_3948 Column_3949 Column_3950 Column_3951 Column_3952 Column_3953 Column_3954 Column_3955 Column_3956 Column_3957 Column_3958 Column_3959 Column_3960 Column_3961 Column_3962 Column_3963 Column_3964 Column_3965 Column_3966 Column_3967 Column_3968 Column_3969 Column_3970 Column_3971 Column_3972 Column_3973 Column_3974 Column_3975 Column_3976 Column_3977 Column_3978 Column_3979 Column_3980 Column_3981 Column_3982 Column_3983 Column_3984 Column_3985 Column_3986 Column_3987 Column_3988 Column_3989 Column_3990 Column_3991 Column_3992 Column_3993 Column_3994 Column_3995 Column_3996 Column_3997 Column_3998 Column_3999 Column_4000 Column_4001 Column_4002 Column_4003 Column_4004 Column_4005 Column_4006 Column_4007 Column_4008 Column_4009 Column_4010 Column_4011 Column_4012 Column_4013 Column_4014 Column_4015 Column_4016 Column_4017 Column_4018 Column_4019 Column_4020 Column_4021 Column_4022 Column_4023 Column_4024 Column_4025 Column_4026 Column_4027 Column_4028 Column_4029 Column_4030 Column_4031 Column_4032 Column_4033 Column_4034 Column_4035 Column_4036 Column_4037 Column_4038 Column_4039 Column_4040 Column_4041 Column_4042 Column_4043 Column_4044 Column_4045 Column_4046 Column_4047 Column_4048 Column_4049 Column_4050 Column_4051 Column_4052 Column_4053 Column_4054 Column_4055 Column_4056 Column_4057 Column_4058 Column_4059 Column_4060 Column_4061 Column_4062 Column_4063 Column_4064 Column_4065 Column_4066 Column_4067 Column_4068 Column_4069 Column_4070 Column_4071 Column_4072 Column_4073 Column_4074 Column_4075 Column_4076 Column_4077 Column_4078 Column_4079 Column_4080 Column_4081 Column_4082 Column_4083 Column_4084 Column_4085 Column_4086 Column_4087 Column_4088 Column_4089 Column_4090 Column_4091 Column_4092 Column_4093 Column_4094 Column_4095 Column_4096 Column_4097 Column_4098 Column_4099 Column_4100 Column_4101 Column_4102 Column_4103 Column_4104 Column_4105 Column_4106 Column_4107 Column_4108 Column_4109 Column_4110 Column_4111 Column_4112 Column_4113 Column_4114 Column_4115 Column_4116 Column_4117 Column_4118 Column_4119 Column_4120 Column_4121 Column_4122 Column_4123 Column_4124 Column_4125 Column_4126 Column_4127 Column_4128 Column_4129 Column_4130 Column_4131 Column_4132 Column_4133 Column_4134 Column_4135 Column_4136 Column_4137 Column_4138 Column_4139 Column_4140 Column_4141 Column_4142 Column_4143 Column_4144 Column_4145 Column_4146 Column_4147 Column_4148 Column_4149 Column_4150 Column_4151 Column_4152 Column_4153 Column_4154 Column_4155 Column_4156 Column_4157 Column_4158 Column_4159 Column_4160 Column_4161 Column_4162 Column_4163 Column_4164 Column_4165 Column_4166 Column_4167 Column_4168 Column_4169 Column_4170 Column_4171 Column_4172 Column_4173 Column_4174 Column_4175 Column_4176 Column_4177 Column_4178 Column_4179 Column_4180 Column_4181 Column_4182 Column_4183 Column_4184 Column_4185 Column_4186 Column_4187 Column_4188 Column_4189 Column_4190 Column_4191 Column_4192 Column_4193 Column_4194 Column_4195 Column_4196 Column_4197 Column_4198 Column_4199 Column_4200 Column_4201 Column_4202 Column_4203 Column_4204 Column_4205 Column_4206 Column_4207 Column_4208 Column_4209 Column_4210 Column_4211 Column_4212 Column_4213 Column_4214 Column_4215 Column_4216 Column_4217 Column_4218 Column_4219 Column_4220 Column_4221 Column_4222 Column_4223 Column_4224 Column_4225 Column_4226 Column_4227 Column_4228 Column_4229 Column_4230 Column_4231 Column_4232 Column_4233 Column_4234 Column_4235 Column_4236 Column_4237 Column_4238 Column_4239 Column_4240 Column_4241 Column_4242 Column_4243 Column_4244 Column_4245 Column_4246 Column_4247 Column_4248 Column_4249 Column_4250 Column_4251 Column_4252 Column_4253 Column_4254 Column_4255 Column_4256 Column_4257 Column_4258 Column_4259 Column_4260 Column_4261 Column_4262 Column_4263 Column_4264 Column_4265 Column_4266 Column_4267 Column_4268 Column_4269 Column_4270 Column_4271 Column_4272 Column_4273 Column_4274 Column_4275 Column_4276 Column_4277 Column_4278 Column_4279 Column_4280 Column_4281 Column_4282 Column_4283 Column_4284 Column_4285 Column_4286 Column_4287 Column_4288 Column_4289 Column_4290 Column_4291 Column_4292 Column_4293 Column_4294 Column_4295 Column_4296 Column_4297 Column_4298 Column_4299 Column_4300 Column_4301 Column_4302 Column_4303 Column_4304 Column_4305 Column_4306 Column_4307 Column_4308 Column_4309 Column_4310 Column_4311 Column_4312 Column_4313 Column_4314 Column_4315 Column_4316 Column_4317 Column_4318 Column_4319 Column_4320 Column_4321 Column_4322 Column_4323 Column_4324 Column_4325 Column_4326 Column_4327 Column_4328 Column_4329 Column_4330 Column_4331 Column_4332 Column_4333 Column_4334 Column_4335 Column_4336 Column_4337 Column_4338 Column_4339 Column_4340 Column_4341 Column_4342 Column_4343 Column_4344 Column_4345 Column_4346 Column_4347 Column_4348 Column_4349 Column_4350 Column_4351 Column_4352 Column_4353 Column_4354 Column_4355 Column_4356 Column_4357 Column_4358 Column_4359 Column_4360 Column_4361 Column_4362 Column_4363 Column_4364 Column_4365 Column_4366 Column_4367 Column_4368 Column_4369 Column_4370 Column_4371 Column_4372 Column_4373 Column_4374 Column_4375 Column_4376 Column_4377 Column_4378 Column_4379 Column_4380 Column_4381 Column_4382 Column_4383 Column_4384 Column_4385 Column_4386 Column_4387 Column_4388 Column_4389 Column_4390 Column_4391 Column_4392 Column_4393 Column_4394 Column_4395 Column_4396 Column_4397 Column_4398 Column_4399 Column_4400 Column_4401 Column_4402 Column_4403 Column_4404 Column_4405 Column_4406 Column_4407 Column_4408 Column_4409 Column_4410 Column_4411 Column_4412 Column_4413 Column_4414 Column_4415 Column_4416 Column_4417 Column_4418 Column_4419 Column_4420 Column_4421 Column_4422 Column_4423 Column_4424 Column_4425 Column_4426 Column_4427 Column_4428 Column_4429 Column_4430 Column_4431 Column_4432 Column_4433 Column_4434 Column_4435 Column_4436 Column_4437 Column_4438 Column_4439 Column_4440 Column_4441 Column_4442 Column_4443 Column_4444 Column_4445 Column_4446 Column_4447 Column_4448 Column_4449 Column_4450 Column_4451 Column_4452 Column_4453 Column_4454 Column_4455 Column_4456 Column_4457 Column_4458 Column_4459 Column_4460 Column_4461 Column_4462 Column_4463 Column_4464 Column_4465 Column_4466 Column_4467 Column_4468 Column_4469 Column_4470 Column_4471 Column_4472 Column_4473 Column_4474 Column_4475 Column_4476 Column_4477 Column_4478 Column_4479 Column_4480 Column_4481 Column_4482 Column_4483 Column_4484 Column_4485 Column_4486 Column_4487 Column_4488 Column_4489 Column_4490 Column_4491 Column_4492 Column_4493 Column_4494 Column_4495 Column_4496 Column_4497 Column_4498 Column_4499 Column_4500 Column_4501 Column_4502 Column_4503 Column_4504 Column_4505 Column_4506 Column_4507 Column_4508 Column_4509 Column_4510 Column_4511 Column_4512 Column_4513 Column_4514 Column_4515 Column_4516 Column_4517 Column_4518 Column_4519 Column_4520 Column_4521 Column_4522 Column_4523 Column_4524 Column_4525 Column_4526 Column_4527 Column_4528 Column_4529 Column_4530 Column_4531 Column_4532 Column_4533 Column_4534 Column_4535 Column_4536 Column_4537 Column_4538 Column_4539 Column_4540 Column_4541 Column_4542 Column_4543 Column_4544 Column_4545 Column_4546 Column_4547 Column_4548 Column_4549 Column_4550 Column_4551 Column_4552 Column_4553 Column_4554 Column_4555 Column_4556 Column_4557 Column_4558 Column_4559 Column_4560 Column_4561 Column_4562 Column_4563 Column_4564 Column_4565 Column_4566 Column_4567 Column_4568 Column_4569 Column_4570 Column_4571 Column_4572 Column_4573 Column_4574 Column_4575 Column_4576 Column_4577 Column_4578 Column_4579 Column_4580 Column_4581 Column_4582 Column_4583 Column_4584 Column_4585 Column_4586 Column_4587 Column_4588 Column_4589 Column_4590 Column_4591 Column_4592 Column_4593 Column_4594 Column_4595 Column_4596 Column_4597 Column_4598 Column_4599 Column_4600 Column_4601 Column_4602 Column_4603 Column_4604 Column_4605 Column_4606 Column_4607 Column_4608 Column_4609 Column_4610 Column_4611 Column_4612 Column_4613 Column_4614 Column_4615 Column_4616 Column_4617 Column_4618 Column_4619 Column_4620 Column_4621 Column_4622 Column_4623 Column_4624 Column_4625 Column_4626 Column_4627 Column_4628 Column_4629 Column_4630 Column_4631 Column_4632 Column_4633 Column_4634 Column_4635 Column_4636 Column_4637 Column_4638 Column_4639 Column_4640 Column_4641 Column_4642 Column_4643 Column_4644 Column_4645 Column_4646 Column_4647 Column_4648 Column_4649 Column_4650 Column_4651 Column_4652 Column_4653 Column_4654 Column_4655 Column_4656 Column_4657 Column_4658 Column_4659 Column_4660 Column_4661 Column_4662 Column_4663 Column_4664 Column_4665 Column_4666 Column_4667 Column_4668 Column_4669 Column_4670 Column_4671 Column_4672 Column_4673 Column_4674 Column_4675 Column_4676 Column_4677 Column_4678 Column_4679 Column_4680 Column_4681 Column_4682 Column_4683 Column_4684 Column_4685 Column_4686 Column_4687 Column_4688 Column_4689 Column_4690 Column_4691 Column_4692 Column_4693 Column_4694 Column_4695 Column_4696 Column_4697 Column_4698 Column_4699 Column_4700 Column_4701 Column_4702 Column_4703 Column_4704 Column_4705 Column_4706 Column_4707 Column_4708 Column_4709 Column_4710 Column_4711 Column_4712 Column_4713 Column_4714 Column_4715 Column_4716 Column_4717 Column_4718 Column_4719 Column_4720 Column_4721 Column_4722 Column_4723 Column_4724 Column_4725 Column_4726 Column_4727 Column_4728 Column_4729 Column_4730 Column_4731 Column_4732 Column_4733 Column_4734 Column_4735 Column_4736 Column_4737 Column_4738 Column_4739 Column_4740 Column_4741 Column_4742 Column_4743 Column_4744 Column_4745 Column_4746 Column_4747 Column_4748 Column_4749 Column_4750 Column_4751 Column_4752 Column_4753 Column_4754 Column_4755 Column_4756 Column_4757 Column_4758 Column_4759 Column_4760 Column_4761 Column_4762 Column_4763 Column_4764 Column_4765 Column_4766 Column_4767 Column_4768 Column_4769 Column_4770 Column_4771 Column_4772 Column_4773 Column_4774 Column_4775 Column_4776 Column_4777 Column_4778 Column_4779 Column_4780 Column_4781 Column_4782 Column_4783 Column_4784 Column_4785 Column_4786 Column_4787 Column_4788 Column_4789 Column_4790 Column_4791 Column_4792 Column_4793 Column_4794 Column_4795 Column_4796 Column_4797 Column_4798 Column_4799 Column_4800 Column_4801 Column_4802 Column_4803 Column_4804 Column_4805 Column_4806 Column_4807 Column_4808 Column_4809 Column_4810 Column_4811 Column_4812 Column_4813 Column_4814 Column_4815 Column_4816 Column_4817 Column_4818 Column_4819 Column_4820 Column_4821 Column_4822 Column_4823 Column_4824 Column_4825 Column_4826 Column_4827 Column_4828 Column_4829 Column_4830 Column_4831 Column_4832 Column_4833 Column_4834 Column_4835 Column_4836 Column_4837 Column_4838 Column_4839 Column_4840 Column_4841 Column_4842 Column_4843 Column_4844 Column_4845 Column_4846 Column_4847 Column_4848 Column_4849 Column_4850 Column_4851 Column_4852 Column_4853 Column_4854 Column_4855 Column_4856 Column_4857 Column_4858 Column_4859 Column_4860 Column_4861 Column_4862 Column_4863 Column_4864 Column_4865 Column_4866 Column_4867 Column_4868 Column_4869 Column_4870 Column_4871 Column_4872 Column_4873 Column_4874 Column_4875 Column_4876 Column_4877 Column_4878 Column_4879 Column_4880 Column_4881 Column_4882 Column_4883 Column_4884 Column_4885 Column_4886 Column_4887 Column_4888 Column_4889 Column_4890 Column_4891 Column_4892 Column_4893 Column_4894 Column_4895 Column_4896 Column_4897 Column_4898 Column_4899 Column_4900 Column_4901 Column_4902 Column_4903 Column_4904 Column_4905 Column_4906 Column_4907 Column_4908 Column_4909 Column_4910 Column_4911 Column_4912 Column_4913 Column_4914 Column_4915 Column_4916 Column_4917 Column_4918 Column_4919 Column_4920 Column_4921 Column_4922 Column_4923 Column_4924 Column_4925 Column_4926 Column_4927 Column_4928 Column_4929 Column_4930 Column_4931 Column_4932 Column_4933 Column_4934 Column_4935 Column_4936 Column_4937 Column_4938 Column_4939 Column_4940 Column_4941 Column_4942 Column_4943 Column_4944 Column_4945 Column_4946 Column_4947 Column_4948 Column_4949 Column_4950 Column_4951 Column_4952 Column_4953 Column_4954 Column_4955 Column_4956 Column_4957 Column_4958 Column_4959 Column_4960 Column_4961 Column_4962 Column_4963 Column_4964 Column_4965 Column_4966 Column_4967 Column_4968 Column_4969 Column_4970 Column_4971 Column_4972 Column_4973 Column_4974 Column_4975 Column_4976 Column_4977 Column_4978 Column_4979 Column_4980 Column_4981 Column_4982 Column_4983 Column_4984 Column_4985 Column_4986 Column_4987 Column_4988 Column_4989 Column_4990 Column_4991 Column_4992 Column_4993 Column_4994 Column_4995 Column_4996 Column_4997 Column_4998 Column_4999 Column_5000 Column_5001 Column_5002 Column_5003 Column_5004 Column_5005 Column_5006 Column_5007 Column_5008 Column_5009 Column_5010 Column_5011 Column_5012 Column_5013 Column_5014 Column_5015 Column_5016 Column_5017 Column_5018 Column_5019 Column_5020 Column_5021 Column_5022 Column_5023 Column_5024 Column_5025 Column_5026 Column_5027 Column_5028 Column_5029 Column_5030 Column_5031 Column_5032 Column_5033 Column_5034 Column_5035 Column_5036 Column_5037 Column_5038 Column_5039 Column_5040 Column_5041 Column_5042 Column_5043 Column_5044 Column_5045 Column_5046 Column_5047 Column_5048 Column_5049 Column_5050 Column_5051 Column_5052 Column_5053 Column_5054 Column_5055 Column_5056 Column_5057 Column_5058 Column_5059 Column_5060 Column_5061 Column_5062 Column_5063 Column_5064 Column_5065 Column_5066 Column_5067 Column_5068 Column_5069 Column_5070 Column_5071 Column_5072 Column_5073 Column_5074 Column_5075 Column_5076 Column_5077 Column_5078 Column_5079 Column_5080 Column_5081 Column_5082 Column_5083 Column_5084 Column_5085 Column_5086 Column_5087 Column_5088 Column_5089 Column_5090 Column_5091 Column_5092 Column_5093 Column_5094 Column_5095 Column_5096 Column_5097 Column_5098 Column_5099 Column_5100 Column_5101 Column_5102 Column_5103 Column_5104 Column_5105 Column_5106 Column_5107 Column_5108 Column_5109 Column_5110 Column_5111 Column_5112 Column_5113 Column_5114 Column_5115 Column_5116 Column_5117 Column_5118 Column_5119 Column_5120 Column_5121 Column_5122 Column_5123 Column_5124 Column_5125 Column_5126 Column_5127 Column_5128 Column_5129 Column_5130 Column_5131 Column_5132 Column_5133 Column_5134 Column_5135 Column_5136 Column_5137 Column_5138 Column_5139 Column_5140 Column_5141 Column_5142 Column_5143 Column_5144 Column_5145 Column_5146 Column_5147 Column_5148 Column_5149 Column_5150 Column_5151 Column_5152 Column_5153 Column_5154 Column_5155 Column_5156 Column_5157 Column_5158 Column_5159 Column_5160 Column_5161 Column_5162 Column_5163 Column_5164 Column_5165 Column_5166 Column_5167 Column_5168 Column_5169 Column_5170 Column_5171 Column_5172 Column_5173 Column_5174 Column_5175 Column_5176 Column_5177 Column_5178 Column_5179 Column_5180 Column_5181 Column_5182 Column_5183 Column_5184 Column_5185 Column_5186 Column_5187 Column_5188 Column_5189 Column_5190 Column_5191 Column_5192 Column_5193 Column_5194 Column_5195 Column_5196 Column_5197 Column_5198 Column_5199 Column_5200 Column_5201 Column_5202 Column_5203 Column_5204 Column_5205 Column_5206 Column_5207 Column_5208 Column_5209 Column_5210 Column_5211 Column_5212 Column_5213 Column_5214 Column_5215 Column_5216 Column_5217 Column_5218 Column_5219 Column_5220 Column_5221 Column_5222 Column_5223 Column_5224 Column_5225 Column_5226 Column_5227 Column_5228 Column_5229 Column_5230 Column_5231 Column_5232 Column_5233 Column_5234 Column_5235 Column_5236 Column_5237 Column_5238 Column_5239 Column_5240 Column_5241 Column_5242 Column_5243 Column_5244 Column_5245 Column_5246 Column_5247 Column_5248 Column_5249 Column_5250 Column_5251 Column_5252 Column_5253 Column_5254 Column_5255 Column_5256 Column_5257 Column_5258 Column_5259 Column_5260 Column_5261 Column_5262 Column_5263 Column_5264 Column_5265 Column_5266 Column_5267 Column_5268 Column_5269 Column_5270 Column_5271 Column_5272 Column_5273 Column_5274 Column_5275 Column_5276 Column_5277 Column_5278 Column_5279 Column_5280 Column_5281 Column_5282 Column_5283 Column_5284 Column_5285 Column_5286 Column_5287 Column_5288 Column_5289 Column_5290 Column_5291 Column_5292 Column_5293 Column_5294 Column_5295 Column_5296 Column_5297 Column_5298 Column_5299 Column_5300 Column_5301 Column_5302 Column_5303 Column_5304 Column_5305 Column_5306 Column_5307 Column_5308 Column_5309 Column_5310 Column_5311 Column_5312 Column_5313 Column_5314 Column_5315 Column_5316 Column_5317 Column_5318 Column_5319 Column_5320 Column_5321 Column_5322 Column_5323 Column_5324 Column_5325 Column_5326 Column_5327 Column_5328 Column_5329 Column_5330 Column_5331 Column_5332 Column_5333 Column_5334 Column_5335 Column_5336 Column_5337 Column_5338 Column_5339 Column_5340 Column_5341 Column_5342 Column_5343 Column_5344 Column_5345 Column_5346 Column_5347 Column_5348 Column_5349 Column_5350 Column_5351 Column_5352 Column_5353 Column_5354 Column_5355 Column_5356 Column_5357 Column_5358 Column_5359 Column_5360 Column_5361 Column_5362 Column_5363 Column_5364 Column_5365 Column_5366 Column_5367 Column_5368 Column_5369 Column_5370 Column_5371 Column_5372 Column_5373 Column_5374 Column_5375 Column_5376 Column_5377 Column_5378 Column_5379 Column_5380 Column_5381 Column_5382 Column_5383 Column_5384 Column_5385 Column_5386 Column_5387 Column_5388 Column_5389 Column_5390 Column_5391 Column_5392 Column_5393 Column_5394 Column_5395 Column_5396 Column_5397 Column_5398 Column_5399 Column_5400 Column_5401 Column_5402 Column_5403 Column_5404 Column_5405 Column_5406 Column_5407 Column_5408 Column_5409 Column_5410 Column_5411 Column_5412 Column_5413 Column_5414 Column_5415 Column_5416 Column_5417 Column_5418 Column_5419 Column_5420 Column_5421 Column_5422 Column_5423 Column_5424 Column_5425 Column_5426 Column_5427 Column_5428 Column_5429 Column_5430 Column_5431 Column_5432 Column_5433 Column_5434 Column_5435 Column_5436 Column_5437 Column_5438 Column_5439 Column_5440 Column_5441 Column_5442 Column_5443 Column_5444 Column_5445 Column_5446 Column_5447 Column_5448 Column_5449 Column_5450 Column_5451 Column_5452 Column_5453 Column_5454 Column_5455 Column_5456 Column_5457 Column_5458 Column_5459 Column_5460 Column_5461 Column_5462 Column_5463 Column_5464 Column_5465 Column_5466 Column_5467 Column_5468 Column_5469 Column_5470 Column_5471 Column_5472 Column_5473 Column_5474 Column_5475 Column_5476 Column_5477 Column_5478 Column_5479 Column_5480 Column_5481 Column_5482 Column_5483 Column_5484 Column_5485 Column_5486 Column_5487 Column_5488 Column_5489 Column_5490 Column_5491 Column_5492 Column_5493 Column_5494 Column_5495 Column_5496 Column_5497 Column_5498 Column_5499 Column_5500 Column_5501 Column_5502 Column_5503 Column_5504 Column_5505 Column_5506 Column_5507 Column_5508 Column_5509 Column_5510 Column_5511 Column_5512 Column_5513 Column_5514 Column_5515 Column_5516 Column_5517 Column_5518 Column_5519 Column_5520 Column_5521 Column_5522 Column_5523 Column_5524 Column_5525 Column_5526 Column_5527 Column_5528 Column_5529 Column_5530 Column_5531 Column_5532 Column_5533 Column_5534 Column_5535 Column_5536 Column_5537 Column_5538 Column_5539 Column_5540 Column_5541 Column_5542 Column_5543 Column_5544 Column_5545 Column_5546 Column_5547 Column_5548 Column_5549 Column_5550 Column_5551 Column_5552 Column_5553 Column_5554 Column_5555 Column_5556 Column_5557 Column_5558 Column_5559 Column_5560 Column_5561 Column_5562 Column_5563 Column_5564 Column_5565 Column_5566 Column_5567 Column_5568 Column_5569 Column_5570 Column_5571 Column_5572 Column_5573 Column_5574 Column_5575 Column_5576 Column_5577 Column_5578 Column_5579 Column_5580 Column_5581 Column_5582 Column_5583 Column_5584 Column_5585 Column_5586 Column_5587 Column_5588 Column_5589 Column_5590 Column_5591 Column_5592 Column_5593 Column_5594 Column_5595 Column_5596 Column_5597 Column_5598 Column_5599 Column_5600 Column_5601 Column_5602 Column_5603 Column_5604 Column_5605 Column_5606 Column_5607 Column_5608 Column_5609 Column_5610 Column_5611 Column_5612 Column_5613 Column_5614 Column_5615 Column_5616 Column_5617 Column_5618 Column_5619 Column_5620 Column_5621 Column_5622 Column_5623 Column_5624 Column_5625 Column_5626 Column_5627 Column_5628 Column_5629 Column_5630 Column_5631 Column_5632 Column_5633 Column_5634 Column_5635 Column_5636 Column_5637 Column_5638 Column_5639 Column_5640 Column_5641 Column_5642 Column_5643 Column_5644 Column_5645 Column_5646 Column_5647 Column_5648 Column_5649 Column_5650 Column_5651 Column_5652 Column_5653 Column_5654 Column_5655 Column_5656 Column_5657 Column_5658 Column_5659 Column_5660 Column_5661 Column_5662 Column_5663 Column_5664 Column_5665 Column_5666 Column_5667 Column_5668 Column_5669 Column_5670 Column_5671 Column_5672 Column_5673 Column_5674 Column_5675 Column_5676 Column_5677 Column_5678 Column_5679 Column_5680 Column_5681 Column_5682 Column_5683 Column_5684 Column_5685 Column_5686 Column_5687 Column_5688 Column_5689 Column_5690 Column_5691 Column_5692 Column_5693 Column_5694 Column_5695 Column_5696 Column_5697 Column_5698 Column_5699 Column_5700 Column_5701 Column_5702 Column_5703 Column_5704 Column_5705 Column_5706 Column_5707 Column_5708 Column_5709 Column_5710 Column_5711 Column_5712 Column_5713 Column_5714 Column_5715 Column_5716 Column_5717 Column_5718 Column_5719 Column_5720 Column_5721 Column_5722 Column_5723 Column_5724 Column_5725 Column_5726 Column_5727 Column_5728 Column_5729 Column_5730 Column_5731 Column_5732 Column_5733 Column_5734 Column_5735 Column_5736 Column_5737 Column_5738 Column_5739 Column_5740 Column_5741 Column_5742 Column_5743 Column_5744 Column_5745 Column_5746 Column_5747 Column_5748 Column_5749 Column_5750 Column_5751 Column_5752 Column_5753 Column_5754 Column_5755 Column_5756 Column_5757 Column_5758 Column_5759 Column_5760 Column_5761 Column_5762 Column_5763 Column_5764 Column_5765 Column_5766 Column_5767 Column_5768 Column_5769 Column_5770 Column_5771 Column_5772 Column_5773 Column_5774 Column_5775 Column_5776 Column_5777 Column_5778 Column_5779 Column_5780 Column_5781 Column_5782 Column_5783 Column_5784 Column_5785 Column_5786 Column_5787 Column_5788 Column_5789 Column_5790 Column_5791 Column_5792 Column_5793 Column_5794 Column_5795 Column_5796 Column_5797 Column_5798 Column_5799 Column_5800 Column_5801 Column_5802 Column_5803 Column_5804 Column_5805 Column_5806 Column_5807 Column_5808 Column_5809 Column_5810 Column_5811 Column_5812 Column_5813 Column_5814 Column_5815 Column_5816 Column_5817 Column_5818 Column_5819 Column_5820 Column_5821 Column_5822 Column_5823 Column_5824 Column_5825 Column_5826 Column_5827 Column_5828 Column_5829 Column_5830 Column_5831 Column_5832 Column_5833 Column_5834 Column_5835 Column_5836 Column_5837 Column_5838 Column_5839 Column_5840 Column_5841 Column_5842 Column_5843 Column_5844 Column_5845 Column_5846 Column_5847 Column_5848 Column_5849 Column_5850 Column_5851 Column_5852 Column_5853 Column_5854 Column_5855 Column_5856 Column_5857 Column_5858 Column_5859 Column_5860 Column_5861 Column_5862 Column_5863 Column_5864 Column_5865 Column_5866 Column_5867 Column_5868 Column_5869 Column_5870 Column_5871 Column_5872 Column_5873 Column_5874 Column_5875 Column_5876 Column_5877 Column_5878 Column_5879 Column_5880 Column_5881 Column_5882 Column_5883 Column_5884 Column_5885 Column_5886 Column_5887 Column_5888 Column_5889 Column_5890 Column_5891 Column_5892 Column_5893 Column_5894 Column_5895 Column_5896 Column_5897 Column_5898 Column_5899 Column_5900 Column_5901 Column_5902 Column_5903 Column_5904 Column_5905 Column_5906 Column_5907 Column_5908 Column_5909 Column_5910 Column_5911 Column_5912 Column_5913 Column_5914 Column_5915 Column_5916 Column_5917 Column_5918 Column_5919 Column_5920 Column_5921 Column_5922 Column_5923 Column_5924 Column_5925 Column_5926 Column_5927 Column_5928 Column_5929 Column_5930 Column_5931 Column_5932 Column_5933 Column_5934 Column_5935 Column_5936 Column_5937 Column_5938 Column_5939 Column_5940 Column_5941 Column_5942 Column_5943 Column_5944 Column_5945 Column_5946 Column_5947 Column_5948 Column_5949 Column_5950 Column_5951 Column_5952 Column_5953 Column_5954 Column_5955 Column_5956 Column_5957 Column_5958 Column_5959 Column_5960 Column_5961 Column_5962 Column_5963 Column_5964 Column_5965 Column_5966 Column_5967 Column_5968 Column_5969 Column_5970 Column_5971 Column_5972 Column_5973 Column_5974 Column_5975 Column_5976 Column_5977 Column_5978 Column_5979 Column_5980 Column_5981 Column_5982 Column_5983 Column_5984 Column_5985 Column_5986 Column_5987 Column_5988 Column_5989 Column_5990 Column_5991 Column_5992 Column_5993 Column_5994 Column_5995 Column_5996 Column_5997 Column_5998 Column_5999 Column_6000 Column_6001 Column_6002 Column_6003 Column_6004 Column_6005 Column_6006 Column_6007 Column_6008 Column_6009 Column_6010 Column_6011 Column_6012 Column_6013 Column_6014 Column_6015 Column_6016 Column_6017 Column_6018 Column_6019 Column_6020 Column_6021 Column_6022 Column_6023 Column_6024 Column_6025 Column_6026 Column_6027 Column_6028 Column_6029 Column_6030 Column_6031 Column_6032 Column_6033 Column_6034 Column_6035 Column_6036 Column_6037 Column_6038 Column_6039 Column_6040 Column_6041 Column_6042 Column_6043 Column_6044 Column_6045 Column_6046 Column_6047 Column_6048 Column_6049 Column_6050 Column_6051 Column_6052 Column_6053 Column_6054 Column_6055 Column_6056 Column_6057 Column_6058 Column_6059 Column_6060 Column_6061 Column_6062 Column_6063 Column_6064 Column_6065 Column_6066 Column_6067 Column_6068 Column_6069 Column_6070 Column_6071 Column_6072 Column_6073 Column_6074 Column_6075 Column_6076 Column_6077 Column_6078 Column_6079 Column_6080 Column_6081 Column_6082 Column_6083 Column_6084 Column_6085 Column_6086 Column_6087 Column_6088 Column_6089 Column_6090 Column_6091 Column_6092 Column_6093 Column_6094 Column_6095 Column_6096 Column_6097 Column_6098 Column_6099 Column_6100 Column_6101 Column_6102 Column_6103 Column_6104 Column_6105 Column_6106 Column_6107 Column_6108 Column_6109 Column_6110 Column_6111 Column_6112 Column_6113 Column_6114 Column_6115 Column_6116 Column_6117 Column_6118 Column_6119 Column_6120 Column_6121 Column_6122 Column_6123 Column_6124 Column_6125 Column_6126 Column_6127 Column_6128 Column_6129 Column_6130 Column_6131 Column_6132 Column_6133 Column_6134 Column_6135 Column_6136 Column_6137 Column_6138 Column_6139 Column_6140 Column_6141 Column_6142 Column_6143 Column_6144 Column_6145 Column_6146 Column_6147 Column_6148 Column_6149 Column_6150 Column_6151 Column_6152 Column_6153 Column_6154 Column_6155 Column_6156 Column_6157 Column_6158 Column_6159 Column_6160 Column_6161 Column_6162 Column_6163 Column_6164 Column_6165 Column_6166 Column_6167 Column_6168 Column_6169 Column_6170 Column_6171 Column_6172 Column_6173 Column_6174 Column_6175 Column_6176 Column_6177 Column_6178 Column_6179 Column_6180 Column_6181 Column_6182 Column_6183 Column_6184 Column_6185 Column_6186 Column_6187 Column_6188 Column_6189 Column_6190 Column_6191 Column_6192 Column_6193 Column_6194 Column_6195 Column_6196 Column_6197 Column_6198 Column_6199 Column_6200 Column_6201 Column_6202 Column_6203 Column_6204 Column_6205 Column_6206 Column_6207 Column_6208 Column_6209 Column_6210 Column_6211 Column_6212 Column_6213 Column_6214 Column_6215 Column_6216 Column_6217 Column_6218 Column_6219 Column_6220 Column_6221 Column_6222 Column_6223 Column_6224 Column_6225 Column_6226 Column_6227 Column_6228 Column_6229 Column_6230 Column_6231 Column_6232 Column_6233 Column_6234 Column_6235 Column_6236 Column_6237 Column_6238 Column_6239 Column_6240 Column_6241 Column_6242 Column_6243 Column_6244 Column_6245 Column_6246 Column_6247 Column_6248 Column_6249 Column_6250 Column_6251 Column_6252 Column_6253 Column_6254 Column_6255 Column_6256 Column_6257 Column_6258 Column_6259 Column_6260 Column_6261 Column_6262 Column_6263 Column_6264 Column_6265 Column_6266 Column_6267 Column_6268 Column_6269 Column_6270 Column_6271 Column_6272 Column_6273 Column_6274 Column_6275 Column_6276 Column_6277 Column_6278 Column_6279 Column_6280 Column_6281 Column_6282 Column_6283 Column_6284 Column_6285 Column_6286 Column_6287 Column_6288 Column_6289 Column_6290 Column_6291 Column_6292 Column_6293 Column_6294 Column_6295 Column_6296 Column_6297 Column_6298 Column_6299 Column_6300 Column_6301 Column_6302 Column_6303 Column_6304 Column_6305 Column_6306 Column_6307 Column_6308 Column_6309 Column_6310 Column_6311 Column_6312 Column_6313 Column_6314 Column_6315 Column_6316 Column_6317 Column_6318 Column_6319 Column_6320 Column_6321 Column_6322 Column_6323 Column_6324 Column_6325 Column_6326 Column_6327 Column_6328 Column_6329 Column_6330 Column_6331 Column_6332 Column_6333 Column_6334 Column_6335 Column_6336 Column_6337 Column_6338 Column_6339 Column_6340 Column_6341 Column_6342 Column_6343 Column_6344 Column_6345 Column_6346 Column_6347 Column_6348 Column_6349 Column_6350 Column_6351 Column_6352 Column_6353 Column_6354 Column_6355 Column_6356 Column_6357 Column_6358 Column_6359 Column_6360 Column_6361 Column_6362 Column_6363 Column_6364 Column_6365 Column_6366 Column_6367 Column_6368 Column_6369 Column_6370 Column_6371 Column_6372 Column_6373 Column_6374 Column_6375 Column_6376 Column_6377 Column_6378 Column_6379 Column_6380 Column_6381 Column_6382 Column_6383 Column_6384 Column_6385 Column_6386 Column_6387 Column_6388 Column_6389 Column_6390 Column_6391 Column_6392 Column_6393 Column_6394 Column_6395 Column_6396 Column_6397 Column_6398 Column_6399 Column_6400 Column_6401 Column_6402 Column_6403 Column_6404 Column_6405 Column_6406 Column_6407 Column_6408 Column_6409 Column_6410 Column_6411 Column_6412 Column_6413 Column_6414 Column_6415 Column_6416 Column_6417 Column_6418 Column_6419 Column_6420 Column_6421 Column_6422 Column_6423 Column_6424 Column_6425 Column_6426 Column_6427 Column_6428 Column_6429 Column_6430 Column_6431 Column_6432 Column_6433 Column_6434 Column_6435 Column_6436 Column_6437 Column_6438 Column_6439 Column_6440 Column_6441 Column_6442 Column_6443 Column_6444 Column_6445 Column_6446 Column_6447 Column_6448 Column_6449 Column_6450 Column_6451 Column_6452 Column_6453 Column_6454 Column_6455 Column_6456 Column_6457 Column_6458 Column_6459 Column_6460 Column_6461 Column_6462 Column_6463 Column_6464 Column_6465 Column_6466 Column_6467 Column_6468 Column_6469 Column_6470 Column_6471 Column_6472 Column_6473 Column_6474 Column_6475 Column_6476 Column_6477 Column_6478 Column_6479 Column_6480 Column_6481 Column_6482 Column_6483 Column_6484 Column_6485 Column_6486 Column_6487 Column_6488 Column_6489 Column_6490 Column_6491 Column_6492 Column_6493 Column_6494 Column_6495 Column_6496 Column_6497 Column_6498 Column_6499 Column_6500 Column_6501 Column_6502 Column_6503 Column_6504 Column_6505 Column_6506 Column_6507 Column_6508 Column_6509 Column_6510 Column_6511 Column_6512 Column_6513 Column_6514 Column_6515 Column_6516 Column_6517 Column_6518 Column_6519 Column_6520 Column_6521 Column_6522 Column_6523 Column_6524 Column_6525 Column_6526 Column_6527 Column_6528 Column_6529 Column_6530 Column_6531 Column_6532 Column_6533 Column_6534 Column_6535 Column_6536 Column_6537 Column_6538 Column_6539 Column_6540 Column_6541 Column_6542 Column_6543 Column_6544 Column_6545 Column_6546 Column_6547 Column_6548 Column_6549 Column_6550 Column_6551 Column_6552 Column_6553 Column_6554 Column_6555 Column_6556 Column_6557 Column_6558 Column_6559 Column_6560 Column_6561 Column_6562 Column_6563 Column_6564 Column_6565 Column_6566 Column_6567 Column_6568 Column_6569 Column_6570 Column_6571 Column_6572 Column_6573 Column_6574 Column_6575 Column_6576 Column_6577 Column_6578 Column_6579 Column_6580 Column_6581 Column_6582 Column_6583 Column_6584 Column_6585 Column_6586 Column_6587 Column_6588 Column_6589 Column_6590 Column_6591 Column_6592 Column_6593 Column_6594 Column_6595 Column_6596 Column_6597 Column_6598 Column_6599 Column_6600 Column_6601 Column_6602 Column_6603 Column_6604 Column_6605 Column_6606 Column_6607 Column_6608 Column_6609 Column_6610 Column_6611 Column_6612 Column_6613 Column_6614 Column_6615 Column_6616 Column_6617 Column_6618 Column_6619 Column_6620 Column_6621 Column_6622 Column_6623 Column_6624 Column_6625 Column_6626 Column_6627 Column_6628 Column_6629 Column_6630 Column_6631 Column_6632 Column_6633 Column_6634 Column_6635 Column_6636 Column_6637 Column_6638 Column_6639 Column_6640 Column_6641 Column_6642 Column_6643 Column_6644 Column_6645 Column_6646 Column_6647 Column_6648 Column_6649 Column_6650 Column_6651 Column_6652 Column_6653 Column_6654 Column_6655 Column_6656 Column_6657 Column_6658 Column_6659 Column_6660 Column_6661 Column_6662 Column_6663 Column_6664 Column_6665 Column_6666 Column_6667 Column_6668 Column_6669 Column_6670 Column_6671 Column_6672 Column_6673 Column_6674 Column_6675 Column_6676 Column_6677 Column_6678 Column_6679 Column_6680 Column_6681 Column_6682 Column_6683 Column_6684 Column_6685 Column_6686 Column_6687 Column_6688 Column_6689 Column_6690 Column_6691 Column_6692 Column_6693 Column_6694 Column_6695 Column_6696 Column_6697 Column_6698 Column_6699 Column_6700 Column_6701 Column_6702 Column_6703 Column_6704 Column_6705 Column_6706 Column_6707 Column_6708 Column_6709 Column_6710 Column_6711 Column_6712 Column_6713 Column_6714 Column_6715 Column_6716 Column_6717 Column_6718 Column_6719 Column_6720 Column_6721 Column_6722 Column_6723 Column_6724 Column_6725 Column_6726 Column_6727 Column_6728 Column_6729 Column_6730 Column_6731 Column_6732 Column_6733 Column_6734 Column_6735 Column_6736 Column_6737 Column_6738 Column_6739 Column_6740 Column_6741 Column_6742 Column_6743 Column_6744 Column_6745 Column_6746 Column_6747 Column_6748 Column_6749 Column_6750 Column_6751 Column_6752 Column_6753 Column_6754 Column_6755 Column_6756 Column_6757 Column_6758 Column_6759 Column_6760 Column_6761 Column_6762 Column_6763 Column_6764 Column_6765 Column_6766 Column_6767 Column_6768 Column_6769 Column_6770 Column_6771 Column_6772 Column_6773 Column_6774 Column_6775 Column_6776 Column_6777 Column_6778 Column_6779 Column_6780 Column_6781 Column_6782 Column_6783 Column_6784 Column_6785 Column_6786 Column_6787 Column_6788 Column_6789 Column_6790 Column_6791 Column_6792 Column_6793 Column_6794 Column_6795 Column_6796 Column_6797 Column_6798 Column_6799 Column_6800 Column_6801 Column_6802 Column_6803 Column_6804 Column_6805 Column_6806 Column_6807 Column_6808 Column_6809 Column_6810 Column_6811 Column_6812 Column_6813 Column_6814 Column_6815 Column_6816 Column_6817 Column_6818 Column_6819 Column_6820 Column_6821 Column_6822 Column_6823 Column_6824 Column_6825 Column_6826 Column_6827 Column_6828 Column_6829 Column_6830 Column_6831 Column_6832 Column_6833 Column_6834 Column_6835 Column_6836 Column_6837 Column_6838 Column_6839 Column_6840 Column_6841 Column_6842 Column_6843 Column_6844 Column_6845 Column_6846 Column_6847 Column_6848 Column_6849 Column_6850 Column_6851 Column_6852 Column_6853 Column_6854 Column_6855 Column_6856 Column_6857 Column_6858 Column_6859 Column_6860 Column_6861 Column_6862 Column_6863 Column_6864 Column_6865 Column_6866 Column_6867 Column_6868 Column_6869 Column_6870 Column_6871 Column_6872 Column_6873 Column_6874 Column_6875 Column_6876 Column_6877 Column_6878 Column_6879 Column_6880 Column_6881 Column_6882 Column_6883 Column_6884 Column_6885 Column_6886 Column_6887 Column_6888 Column_6889 Column_6890 Column_6891 Column_6892 Column_6893 Column_6894 Column_6895 Column_6896 Column_6897 Column_6898 Column_6899 Column_6900 Column_6901 Column_6902 Column_6903 Column_6904 Column_6905 Column_6906 Column_6907 Column_6908 Column_6909 Column_6910 Column_6911 Column_6912 Column_6913 Column_6914 Column_6915 Column_6916 Column_6917 Column_6918 Column_6919 Column_6920 Column_6921 Column_6922 Column_6923 Column_6924 Column_6925 Column_6926 Column_6927 Column_6928 Column_6929 Column_6930 Column_6931 Column_6932 Column_6933 Column_6934 Column_6935 Column_6936 Column_6937 Column_6938 Column_6939 Column_6940 Column_6941 Column_6942 Column_6943 Column_6944 Column_6945 Column_6946 Column_6947 Column_6948 Column_6949 Column_6950 Column_6951 Column_6952 Column_6953 Column_6954 Column_6955 Column_6956 Column_6957 Column_6958 Column_6959 Column_6960 Column_6961 Column_6962 Column_6963 Column_6964 Column_6965 Column_6966 Column_6967 Column_6968 Column_6969 Column_6970 Column_6971 Column_6972 Column_6973 Column_6974 Column_6975 Column_6976 Column_6977 Column_6978 Column_6979 Column_6980 Column_6981 Column_6982 Column_6983 Column_6984 Column_6985 Column_6986 Column_6987 Column_6988 Column_6989 Column_6990 Column_6991 Column_6992 Column_6993 Column_6994 Column_6995 Column_6996 Column_6997 Column_6998 Column_6999 Column_7000 Column_7001 Column_7002 Column_7003 Column_7004 Column_7005 Column_7006 Column_7007 Column_7008 Column_7009 Column_7010 Column_7011 Column_7012 Column_7013 Column_7014 Column_7015 Column_7016 Column_7017 Column_7018 Column_7019 Column_7020 Column_7021 Column_7022 Column_7023 Column_7024 Column_7025 Column_7026 Column_7027 Column_7028 Column_7029 Column_7030 Column_7031 Column_7032 Column_7033 Column_7034 Column_7035 Column_7036 Column_7037 Column_7038 Column_7039 Column_7040 Column_7041 Column_7042 Column_7043 Column_7044 Column_7045 Column_7046 Column_7047 Column_7048 Column_7049 Column_7050 Column_7051 Column_7052 Column_7053 Column_7054 Column_7055 Column_7056 Column_7057 Column_7058 Column_7059 Column_7060 Column_7061 Column_7062 Column_7063 Column_7064 Column_7065 Column_7066 Column_7067 Column_7068 Column_7069 Column_7070 Column_7071 Column_7072 Column_7073 Column_7074 Column_7075 Column_7076 Column_7077 Column_7078 Column_7079 Column_7080 Column_7081 Column_7082 Column_7083 Column_7084 Column_7085 Column_7086 Column_7087 Column_7088 Column_7089 Column_7090 Column_7091 Column_7092 Column_7093 Column_7094 Column_7095 Column_7096 Column_7097 Column_7098 Column_7099 Column_7100 Column_7101 Column_7102 Column_7103 Column_7104 Column_7105 Column_7106 Column_7107 Column_7108 Column_7109 Column_7110 Column_7111 Column_7112 Column_7113 Column_7114 Column_7115 Column_7116 Column_7117 Column_7118 Column_7119 Column_7120 Column_7121 Column_7122 Column_7123 Column_7124 Column_7125 Column_7126 Column_7127 Column_7128 Column_7129 Column_7130 Column_7131 Column_7132 Column_7133 Column_7134 Column_7135 Column_7136 Column_7137 Column_7138 Column_7139 Column_7140 Column_7141 Column_7142 Column_7143 Column_7144 Column_7145 Column_7146 Column_7147 Column_7148 Column_7149 Column_7150 Column_7151 Column_7152 Column_7153 Column_7154 Column_7155 Column_7156 Column_7157 Column_7158 Column_7159 Column_7160 Column_7161 Column_7162 Column_7163 Column_7164 Column_7165 Column_7166 Column_7167 Column_7168 Column_7169 Column_7170 Column_7171 Column_7172 Column_7173 Column_7174 Column_7175 Column_7176 Column_7177 Column_7178 Column_7179 Column_7180 Column_7181 Column_7182 Column_7183 Column_7184 Column_7185 Column_7186 Column_7187 Column_7188 Column_7189 Column_7190 Column_7191 Column_7192 Column_7193 Column_7194 Column_7195 Column_7196 Column_7197 Column_7198 Column_7199 Column_7200 Column_7201 Column_7202 Column_7203 Column_7204 Column_7205 Column_7206 Column_7207 Column_7208 Column_7209 Column_7210 Column_7211 Column_7212 Column_7213 Column_7214 Column_7215 Column_7216 Column_7217 Column_7218 Column_7219 Column_7220 Column_7221 Column_7222 Column_7223 Column_7224 Column_7225 Column_7226 Column_7227 Column_7228 Column_7229 Column_7230 Column_7231 Column_7232 Column_7233 Column_7234 Column_7235 Column_7236 Column_7237 Column_7238 Column_7239 Column_7240 Column_7241 Column_7242 Column_7243 Column_7244 Column_7245 Column_7246 Column_7247 Column_7248 Column_7249 Column_7250 Column_7251 Column_7252 Column_7253 Column_7254 Column_7255 Column_7256 Column_7257 Column_7258 Column_7259 Column_7260 Column_7261 Column_7262 Column_7263 Column_7264 Column_7265 Column_7266 Column_7267 Column_7268 Column_7269 Column_7270 Column_7271 Column_7272 Column_7273 Column_7274 Column_7275 Column_7276 Column_7277 Column_7278 Column_7279 Column_7280 Column_7281 Column_7282 Column_7283 Column_7284 Column_7285 Column_7286 Column_7287 Column_7288 Column_7289 Column_7290 Column_7291 Column_7292 Column_7293 Column_7294 Column_7295 Column_7296 Column_7297 Column_7298 Column_7299 Column_7300 Column_7301 Column_7302 Column_7303 Column_7304 Column_7305 Column_7306 Column_7307 Column_7308 Column_7309 Column_7310 Column_7311 Column_7312 Column_7313 Column_7314 Column_7315 Column_7316 Column_7317 Column_7318 Column_7319 Column_7320 Column_7321 Column_7322 Column_7323 Column_7324 Column_7325 Column_7326 Column_7327 Column_7328 Column_7329 Column_7330 Column_7331 Column_7332 Column_7333 Column_7334 Column_7335 Column_7336 Column_7337 Column_7338 Column_7339 Column_7340 Column_7341 Column_7342 Column_7343 Column_7344 Column_7345 Column_7346 Column_7347 Column_7348 Column_7349 Column_7350 Column_7351 Column_7352 Column_7353 Column_7354 Column_7355 Column_7356 Column_7357 Column_7358 Column_7359 Column_7360 Column_7361 Column_7362 Column_7363 Column_7364 Column_7365 Column_7366 Column_7367 Column_7368 Column_7369 Column_7370 Column_7371 Column_7372 Column_7373 Column_7374 Column_7375 Column_7376 Column_7377 Column_7378 Column_7379 Column_7380 Column_7381 Column_7382 Column_7383 Column_7384 Column_7385 Column_7386 Column_7387 Column_7388 Column_7389 Column_7390 Column_7391 Column_7392 Column_7393 Column_7394 Column_7395 Column_7396 Column_7397 Column_7398 Column_7399 Column_7400 Column_7401 Column_7402 Column_7403 Column_7404 Column_7405 Column_7406 Column_7407 Column_7408 Column_7409 Column_7410 Column_7411 Column_7412 Column_7413 Column_7414 Column_7415 Column_7416 Column_7417 Column_7418 Column_7419 Column_7420 Column_7421 Column_7422 Column_7423 Column_7424 Column_7425 Column_7426 Column_7427 Column_7428 Column_7429 Column_7430 Column_7431 Column_7432 Column_7433 Column_7434 Column_7435 Column_7436 Column_7437 Column_7438 Column_7439 Column_7440 Column_7441 Column_7442 Column_7443 Column_7444 Column_7445 Column_7446 Column_7447 Column_7448 Column_7449 Column_7450 Column_7451 Column_7452 Column_7453 Column_7454 Column_7455 Column_7456 Column_7457 Column_7458 Column_7459 Column_7460 Column_7461 Column_7462 Column_7463 Column_7464 Column_7465 Column_7466 Column_7467 Column_7468 Column_7469 Column_7470 Column_7471 Column_7472 Column_7473 Column_7474 Column_7475 Column_7476 Column_7477 Column_7478 Column_7479 Column_7480 Column_7481 Column_7482 Column_7483 Column_7484 Column_7485 Column_7486 Column_7487 Column_7488 Column_7489 Column_7490 Column_7491 Column_7492 Column_7493 Column_7494 Column_7495 Column_7496 Column_7497 Column_7498 Column_7499 Column_7500 Column_7501 Column_7502 Column_7503 Column_7504 Column_7505 Column_7506 Column_7507 Column_7508 Column_7509 Column_7510 Column_7511 Column_7512 Column_7513 Column_7514 Column_7515 Column_7516 Column_7517 Column_7518 Column_7519 Column_7520 Column_7521 Column_7522 Column_7523 Column_7524 Column_7525 Column_7526 Column_7527 Column_7528 Column_7529 Column_7530 Column_7531 Column_7532 Column_7533 Column_7534 Column_7535 Column_7536 Column_7537 Column_7538 Column_7539 Column_7540 Column_7541 Column_7542 Column_7543 Column_7544 Column_7545 Column_7546 Column_7547 Column_7548 Column_7549 Column_7550 Column_7551 Column_7552 Column_7553 Column_7554 Column_7555 Column_7556 Column_7557 Column_7558 Column_7559 Column_7560 Column_7561 Column_7562 Column_7563 Column_7564 Column_7565 Column_7566 Column_7567 Column_7568 Column_7569 Column_7570 Column_7571 Column_7572 Column_7573 Column_7574 Column_7575 Column_7576 Column_7577 Column_7578 Column_7579 Column_7580 Column_7581 Column_7582 Column_7583 Column_7584 Column_7585 Column_7586 Column_7587 Column_7588 Column_7589 Column_7590 Column_7591 Column_7592 Column_7593 Column_7594 Column_7595 Column_7596 Column_7597 Column_7598 Column_7599 Column_7600 Column_7601 Column_7602 Column_7603 Column_7604 Column_7605 Column_7606 Column_7607 Column_7608 Column_7609 Column_7610 Column_7611 Column_7612 Column_7613 Column_7614 Column_7615 Column_7616 Column_7617 Column_7618 Column_7619 Column_7620 Column_7621 Column_7622 Column_7623 Column_7624 Column_7625 Column_7626 Column_7627 Column_7628 Column_7629 Column_7630 Column_7631 Column_7632 Column_7633 Column_7634 Column_7635 Column_7636 Column_7637 Column_7638 Column_7639 Column_7640 Column_7641 Column_7642 Column_7643 Column_7644 Column_7645 Column_7646 Column_7647 Column_7648 Column_7649 Column_7650 Column_7651 Column_7652 Column_7653 Column_7654 Column_7655 Column_7656 Column_7657 Column_7658 Column_7659 Column_7660 Column_7661 Column_7662 Column_7663 Column_7664 Column_7665 Column_7666 Column_7667 Column_7668 Column_7669 Column_7670 Column_7671 Column_7672 Column_7673 Column_7674 Column_7675 Column_7676 Column_7677 Column_7678 Column_7679 Column_7680 Column_7681 Column_7682 Column_7683 Column_7684 Column_7685 Column_7686 Column_7687 Column_7688 Column_7689 Column_7690 Column_7691 Column_7692 Column_7693 Column_7694 Column_7695 Column_7696 Column_7697 Column_7698 Column_7699 Column_7700 Column_7701 Column_7702 Column_7703 Column_7704 Column_7705 Column_7706 Column_7707 Column_7708 Column_7709 Column_7710 Column_7711 Column_7712 Column_7713 Column_7714 Column_7715 Column_7716 Column_7717 Column_7718 Column_7719 Column_7720 Column_7721 Column_7722 Column_7723 Column_7724 Column_7725 Column_7726 Column_7727 Column_7728 Column_7729 Column_7730 Column_7731 Column_7732 Column_7733 Column_7734 Column_7735 Column_7736 Column_7737 Column_7738 Column_7739 Column_7740 Column_7741 Column_7742 Column_7743 Column_7744 Column_7745 Column_7746 Column_7747 Column_7748 Column_7749 Column_7750 Column_7751 Column_7752 Column_7753 Column_7754 Column_7755 Column_7756 Column_7757 Column_7758 Column_7759 Column_7760 Column_7761 Column_7762 Column_7763 Column_7764 Column_7765 Column_7766 Column_7767 Column_7768 Column_7769 Column_7770 Column_7771 Column_7772 Column_7773 Column_7774 Column_7775 Column_7776 Column_7777 Column_7778 Column_7779 Column_7780 Column_7781 Column_7782 Column_7783 Column_7784 Column_7785 Column_7786 Column_7787 Column_7788 Column_7789 Column_7790 Column_7791 Column_7792 Column_7793 Column_7794 Column_7795 Column_7796 Column_7797 Column_7798 Column_7799 Column_7800 Column_7801 Column_7802 Column_7803 Column_7804 Column_7805 Column_7806 Column_7807 Column_7808 Column_7809 Column_7810 Column_7811 Column_7812 Column_7813 Column_7814 Column_7815 Column_7816 Column_7817 Column_7818 Column_7819 Column_7820 Column_7821 Column_7822 Column_7823 Column_7824 Column_7825 Column_7826 Column_7827 Column_7828 Column_7829 Column_7830 Column_7831 Column_7832 Column_7833 Column_7834 Column_7835 Column_7836 Column_7837 Column_7838 Column_7839 Column_7840 Column_7841 Column_7842 Column_7843 Column_7844 Column_7845 Column_7846 Column_7847 Column_7848 Column_7849 Column_7850 Column_7851 Column_7852 Column_7853 Column_7854 Column_7855 Column_7856 Column_7857 Column_7858 Column_7859 Column_7860 Column_7861 Column_7862 Column_7863 Column_7864 Column_7865 Column_7866 Column_7867 Column_7868 Column_7869 Column_7870 Column_7871 Column_7872 Column_7873 Column_7874 Column_7875 Column_7876 Column_7877 Column_7878 Column_7879 Column_7880 Column_7881 Column_7882 Column_7883 Column_7884 Column_7885 Column_7886 Column_7887 Column_7888 Column_7889 Column_7890 Column_7891 Column_7892 Column_7893 Column_7894 Column_7895 Column_7896 Column_7897 Column_7898 Column_7899 Column_7900 Column_7901 Column_7902 Column_7903 Column_7904 Column_7905 Column_7906 Column_7907 Column_7908 Column_7909 Column_7910 Column_7911 Column_7912 Column_7913 Column_7914 Column_7915 Column_7916 Column_7917 Column_7918 Column_7919 Column_7920 Column_7921 Column_7922 Column_7923 Column_7924 Column_7925 Column_7926 Column_7927 Column_7928 Column_7929 Column_7930 Column_7931 Column_7932 Column_7933 Column_7934 Column_7935 Column_7936 Column_7937 Column_7938 Column_7939 Column_7940 Column_7941 Column_7942 Column_7943 Column_7944 Column_7945 Column_7946 Column_7947 Column_7948 Column_7949 Column_7950 Column_7951 Column_7952 Column_7953 Column_7954 Column_7955 Column_7956 Column_7957 Column_7958 Column_7959 Column_7960 Column_7961 Column_7962 Column_7963 Column_7964 Column_7965 Column_7966 Column_7967 Column_7968 Column_7969 Column_7970 Column_7971 Column_7972 Column_7973 Column_7974 Column_7975 Column_7976 Column_7977 Column_7978 Column_7979 Column_7980 Column_7981 Column_7982 Column_7983 Column_7984 Column_7985 Column_7986 Column_7987 Column_7988 Column_7989 Column_7990 Column_7991 Column_7992 Column_7993 Column_7994 Column_7995 Column_7996 Column_7997 Column_7998 Column_7999 Column_8000 Column_8001 Column_8002 Column_8003 Column_8004 Column_8005 Column_8006 Column_8007
